{"learner":{"attributes":{},"feature_names":[],"feature_types":[],"gradient_booster":{"model":{"cats":{"enc":[],"feature_segments":[],"sorted_idx":[]},"gbtree_model_param":{"num_parallel_tree":"1","num_trees":"100"},"iteration_indptr":[0,1,2,3,4,5,6,7,8,9,10,11,12,13,14,15,16,17,18,19,20,21,22,23,24,25,26,27,28,29,30,31,32,33,34,35,36,37,38,39,40,41,42,43,44,45,46,47,48,49,50,51,52,53,54,55,56,57,58,59,60,61,62,63,64,65,66,67,68,69,70,71,72,73,74,75,76,77,78,79,80,81,82,83,84,85,86,87,88,89,90,91,92,93,94,95,96,97,98,99,100],"tree_info":[0,0,0,0,0,0,0,0,0,0,0,0,0,0,0,0,0,0,0,0,0,0,0,0,0,0,0,0,0,0,0,0,0,0,0,0,0,0,0,0,0,0,0,0,0,0,0,0,0,0,0,0,0,0,0,0,0,0,0,0,0,0,0,0,0,0,0,0,0,0,0,0,0,0,0,0,0,0,0,0,0,0,0,0,0,0,0,0,0,0,0,0,0,0,0,0,0,0,0,0],"trees":[{"base_weights":[4.3136463E0,3.5066266E0,4.536941E0,1.6140136E-1,1.8867354E-1,2.0959508E-1,2.3534052E-1],"categories":[],"categories_nodes":[],"categories_segments":[],"categories_sizes":[],"default_left":[0,0,0,0,0,0,0],"id":0,"left_children":[1,3,5,-1,-1,-1,-1],"loss_changes":[1.284336E2,1.052002E0,1.6842773E1,0E0,0E0,0E0,0E0],"parents":[2147483647,0,0,1,1,2,2],"right_children":[2,4,6,-1,-1,-1,-1],"split_conditions":[3E1,4.675E1,4.5E1,1.6140136E-1,1.8867354E-1,2.0959508E-1,2.3534052E-1],"split_indices":[3,0,3,0,0,0,0],"split_type":[0,0,0,0,0,0,0],"sum_hessian":[8E2,1.77E2,6.23E2,9.3E1,8.4E1,2.14E2,4.09E2],"tree_param":{"num_deleted":"0","num_feature":"5","num_nodes":"7","size_leaf_vector":"1"}},{"base_weights":[4.0989566E0,3.333262E0,4.3108068E0,1.5341714E-1,1.7935084E-1,1.9916408E-1,2.236022E-1],"categories":[],"categories_nodes":[],"categories_segments":[],"categories_sizes":[],"default_left":[0,0,0,0,0,0,0],"id":1,"left_children":[1,3,5,-1,-1,-1,-1],"loss_changes":[1.1556445E2,9.597168E-1,1.5139648E1,0E0,0E0,0E0,0E0],"parents":[2147483647,0,0,1,1,2,2],"right_children":[2,4,6,-1,-1,-1,-1],"split_conditions":[3E1,4.675E1,4.5E1,1.5341714E-1,1.7935084E-1,1.9916408E-1,2.236022E-1],"split_indices":[3,0,3,0,0,0,0],"split_type":[0,0,0,0,0,0,0],"sum_hessian":[8E2,1.77E2,6.23E2,9.3E1,8.4E1,2.14E2,4.09E2],"tree_param":{"num_deleted":"0","num_feature":"5","num_nodes":"7","size_leaf_vector":"1"}},{"base_weights":[3.8949518E0,3.1684682E0,4.095944E0,1.4582787E-1,1.704888E-1,1.8925218E-1,2.1244936E-1],"categories":[],"categories_nodes":[],"categories_segments":[],"categories_sizes":[],"default_left":[0,0,0,0,0,0,0],"id":2,"left_children":[1,3,5,-1,-1,-1,-1],"loss_changes":[1.039834E2,8.753662E-1,1.3607422E1,0E0,0E0,0E0,0E0],"parents":[2147483647,0,0,1,1,2,2],"right_children":[2,4,6,-1,-1,-1,-1],"split_conditions":[3E1,4.675E1,4.5E1,1.4582787E-1,1.704888E-1,1.8925218E-1,2.1244936E-1],"split_indices":[3,0,3,0,0,0,0],"split_type":[0,0,0,0,0,0,0],"sum_hessian":[8E2,1.77E2,6.23E2,9.3E1,8.4E1,2.14E2,4.09E2],"tree_param":{"num_deleted":"0","num_feature":"5","num_nodes":"7","size_leaf_vector":"1"}},{"base_weights":[3.7011008E0,3.011822E0,3.8917906E0,1.3861406E-1,1.6206466E-1,1.8688355E-1,2.0987685E-1],"categories":[],"categories_nodes":[],"categories_segments":[],"categories_sizes":[],"default_left":[0,0,0,0,0,0,0],"id":3,"left_children":[1,3,5,-1,-1,-1,-1],"loss_changes":[9.356055E1,7.984619E-1,1.3714844E1,0E0,0E0,0E0,0E0],"parents":[2147483647,0,0,1,1,2,2],"right_children":[2,4,6,-1,-1,-1,-1],"split_conditions":[3E1,4.675E1,6E1,1.3861406E-1,1.6206466E-1,1.8688355E-1,2.0987685E-1],"split_indices":[3,0,3,0,0,0,0],"split_type":[0,0,0,0,0,0,0],"sum_hessian":[8E2,1.77E2,6.23E2,9.3E1,8.4E1,4.23E2,2E2],"tree_param":{"num_deleted":"0","num_feature":"5","num_nodes":"7","size_leaf_vector":"1"}},{"base_weights":[3.5169163E0,2.86292E0,3.6978369E0,1.3175708E-1,1.5405674E-1,1.775614E-1,1.994352E-1],"categories":[],"categories_nodes":[],"categories_segments":[],"categories_sizes":[],"default_left":[0,0,0,0,0,0,0],"id":4,"left_children":[1,3,5,-1,-1,-1,-1],"loss_changes":[8.418848E1,7.281494E-1,1.2444336E1,0E0,0E0,0E0,0E0],"parents":[2147483647,0,0,1,1,2,2],"right_children":[2,4,6,-1,-1,-1,-1],"split_conditions":[3E1,4.675E1,6E1,1.3175708E-1,1.5405674E-1,1.775614E-1,1.994352E-1],"split_indices":[3,0,3,0,0,0,0],"split_type":[0,0,0,0,0,0,0],"sum_hessian":[8E2,1.77E2,6.23E2,9.3E1,8.4E1,4.23E2,2E2],"tree_param":{"num_deleted":"0","num_feature":"5","num_nodes":"7","size_leaf_vector":"1"}},{"base_weights":[3.341898E0,2.7213798E0,3.513549E0,1.2523931E-1,1.4644453E-1,1.6169609E-1,1.8258068E-1],"categories":[],"categories_nodes":[],"categories_segments":[],"categories_sizes":[],"default_left":[0,0,0,0,0,0,0],"id":5,"left_children":[1,3,5,-1,-1,-1,-1],"loss_changes":[7.575488E1,6.640625E-1,1.2281738E1,0E0,0E0,0E0,0E0],"parents":[2147483647,0,0,1,1,2,2],"right_children":[2,4,6,-1,-1,-1,-1],"split_conditions":[3E1,4.675E1,4.5E1,1.2523931E-1,1.4644453E-1,1.6169609E-1,1.8258068E-1],"split_indices":[3,0,3,0,0,0,0],"split_type":[0,0,0,0,0,0,0],"sum_hessian":[8E2,1.77E2,6.23E2,9.3E1,8.4E1,2.14E2,4.09E2],"tree_param":{"num_deleted":"0","num_feature":"5","num_nodes":"7","size_leaf_vector":"1"}},{"base_weights":[3.1755722E0,2.586837E0,3.3384235E0,1.1904396E-1,1.3920844E-1,1.6012381E-1,1.8042944E-1],"categories":[],"categories_nodes":[],"categories_segments":[],"categories_sizes":[],"default_left":[0,0,0,0,0,0,0],"id":6,"left_children":[1,3,5,-1,-1,-1,-1],"loss_changes":[6.816162E1,6.0546875E-1,1.1361816E1,0E0,0E0,0E0,0E0],"parents":[2147483647,0,0,1,1,2,2],"right_children":[2,4,6,-1,-1,-1,-1],"split_conditions":[3E1,4.675E1,6E1,1.1904396E-1,1.3920844E-1,1.6012381E-1,1.8042944E-1],"split_indices":[3,0,3,0,0,0,0],"split_type":[0,0,0,0,0,0,0],"sum_hessian":[8E2,1.77E2,6.23E2,9.3E1,8.4E1,4.23E2,2E2],"tree_param":{"num_deleted":"0","num_feature":"5","num_nodes":"7","size_leaf_vector":"1"}},{"base_weights":[3.0175412E0,2.458946E0,3.172048E0,1.1464142E-1,1.3440673E-1,1.4567994E-1,1.6499199E-1],"categories":[],"categories_nodes":[],"categories_segments":[],"categories_sizes":[],"default_left":[0,0,0,0,0,0,0],"id":7,"left_children":[1,3,5,-1,-1,-1,-1],"loss_changes":[6.133203E1,6.134033E-1,1.0995117E1,0E0,0E0,0E0,0E0],"parents":[2147483647,0,0,1,1,2,2],"right_children":[2,4,6,-1,-1,-1,-1],"split_conditions":[3E1,4.693617E1,4.5E1,1.1464142E-1,1.3440673E-1,1.4567994E-1,1.6499199E-1],"split_indices":[3,0,3,0,0,0,0],"split_type":[0,0,0,0,0,0,0],"sum_hessian":[8E2,1.77E2,6.23E2,1.09E2,6.8E1,2.14E2,4.09E2],"tree_param":{"num_deleted":"0","num_feature":"5","num_nodes":"7","size_leaf_vector":"1"}},{"base_weights":[2.8673627E0,2.3373978E0,3.0139434E0,1.07484E-1,1.2587467E-1,1.4439373E-1,1.6324429E-1],"categories":[],"categories_nodes":[],"categories_segments":[],"categories_sizes":[],"default_left":[0,0,0,0,0,0,0],"id":8,"left_children":[1,3,5,-1,-1,-1,-1],"loss_changes":[5.517871E1,6.0595703E-1,1.03125E1,0E0,0E0,0E0,0E0],"parents":[2147483647,0,0,1,1,2,2],"right_children":[2,4,6,-1,-1,-1,-1],"split_conditions":[3E1,4.675E1,6E1,1.07484E-1,1.2587467E-1,1.4439373E-1,1.6324429E-1],"split_indices":[3,0,3,0,0,0,0],"split_type":[0,0,0,0,0,0,0],"sum_hessian":[8E2,1.77E2,6.23E2,9.3E1,8.4E1,4.23E2,2E2],"tree_param":{"num_deleted":"0","num_feature":"5","num_nodes":"7","size_leaf_vector":"1"}},{"base_weights":[2.72467E0,2.221839E0,2.8637393E0,1.03502356E-1,1.2158127E-1,2.624874E0,1.4910066E-1,1.19204305E-1,1.3849546E-1],"categories":[],"categories_nodes":[],"categories_segments":[],"categories_sizes":[],"default_left":[0,0,0,0,0,0,0,0,0],"id":9,"left_children":[1,3,5,-1,-1,7,-1,-1,-1],"loss_changes":[4.9649902E1,6.347046E-1,9.801758E0,0E0,0E0,9.0478516E-1,0E0,0E0,0E0],"parents":[2147483647,0,0,1,1,2,2,5,5],"right_children":[2,4,6,-1,-1,8,-1,-1,-1],"split_conditions":[3E1,4.693617E1,4.5E1,1.03502356E-1,1.2158127E-1,4.2489796E1,1.4910066E-1,1.19204305E-1,1.3849546E-1],"split_indices":[3,0,3,0,0,0,0,0,0],"split_type":[0,0,0,0,0,0,0,0,0],"sum_hessian":[8E2,1.77E2,6.23E2,1.09E2,6.8E1,2.14E2,4.09E2,8.7E1,1.27E2],"tree_param":{"num_deleted":"0","num_feature":"5","num_nodes":"9","size_leaf_vector":"1"}},{"base_weights":[2.5892253E0,2.1120117E0,2.7212043E0,9.837429E-2,1.1559031E-1,2.604383E0,1.4770475E-1,1.2369802E-1,1.3738331E-1],"categories":[],"categories_nodes":[],"categories_segments":[],"categories_sizes":[],"default_left":[0,0,0,0,0,0,0,0,0],"id":10,"left_children":[1,3,5,-1,-1,7,-1,-1,-1],"loss_changes":[4.470117E1,5.913696E-1,9.283203E0,0E0,0E0,1.1257324E0,0E0,0E0,0E0],"parents":[2147483647,0,0,1,1,2,2,5,5],"right_children":[2,4,6,-1,-1,8,-1,-1,-1],"split_conditions":[3E1,4.693617E1,6E1,9.837429E-2,1.1559031E-1,4.675E1,1.4770475E-1,1.2369802E-1,1.3738331E-1],"split_indices":[3,0,3,0,0,0,0,0,0],"split_type":[0,0,0,0,0,0,0,0,0],"sum_hessian":[8E2,1.77E2,6.23E2,1.09E2,6.8E1,4.23E2,2E2,2.31E2,1.92E2],"tree_param":{"num_deleted":"0","num_feature":"5","num_nodes":"9","size_leaf_vector":"1"}},{"base_weights":[2.4605415E0,2.2089722E0,1.3475326E-1,2.007613E0,2.3654048E0,8.3959095E-2,1.039526E-1,1.071972E-1,1.2495897E-1],"categories":[],"categories_nodes":[],"categories_segments":[],"categories_sizes":[],"default_left":[0,0,0,0,0,0,0,0,0],"id":11,"left_children":[1,3,-1,5,7,-1,-1,-1,-1],"loss_changes":[4.1305176E1,7.598755E0,0E0,6.8530273E-1,1.0114746E0,0E0,0E0,0E0,0E0],"parents":[2147483647,0,0,1,1,3,3,4,4],"right_children":[2,4,-1,6,8,-1,-1,-1,-1],"split_conditions":[4.5E1,3E1,1.3475326E-1,3.5909092E1,4.2489796E1,8.3959095E-2,1.039526E-1,1.071972E-1,1.2495897E-1],"split_indices":[3,3,0,0,0,0,0,0,0],"split_type":[0,0,0,0,0,0,0,0,0],"sum_hessian":[8E2,3.91E2,4.09E2,1.77E2,2.14E2,3.6E1,1.41E2,8.7E1,1.27E2],"tree_param":{"num_deleted":"0","num_feature":"5","num_nodes":"9","size_leaf_vector":"1"}},{"base_weights":[2.3382072E0,2.0995953E0,1.2803201E-1,1.9082881E0,2.2482142E0,8.742103E-2,1.0313161E-1,9.939653E-2,1.17387556E-1],"categories":[],"categories_nodes":[],"categories_segments":[],"categories_sizes":[],"default_left":[0,0,0,0,0,0,0,0,0],"id":12,"left_children":[1,3,-1,5,7,-1,-1,-1,-1],"loss_changes":[3.7137207E1,6.8552246E0,0E0,7.8570557E-1,9.029541E-1,0E0,0E0,0E0,0E0],"parents":[2147483647,0,0,1,1,3,3,4,4],"right_children":[2,4,-1,6,8,-1,-1,-1,-1],"split_conditions":[4.5E1,3E1,1.2803201E-1,4.675E1,4.0244446E1,8.742103E-2,1.0313161E-1,9.939653E-2,1.17387556E-1],"split_indices":[3,3,0,0,0,0,0,0,0],"split_type":[0,0,0,0,0,0,0,0,0],"sum_hessian":[8E2,3.91E2,4.09E2,1.77E2,2.14E2,9.3E1,8.4E1,6.5E1,1.49E2],"tree_param":{"num_deleted":"0","num_feature":"5","num_nodes":"9","size_leaf_vector":"1"}},{"base_weights":[2.2219653E0,1.9956547E0,1.2164604E-1,1.8139442E0,2.136812E0,8.42315E-2,9.969041E-2,9.949701E-2,1.15577176E-1],"categories":[],"categories_nodes":[],"categories_segments":[],"categories_sizes":[],"default_left":[0,0,0,0,0,0,0,0,0],"id":13,"left_children":[1,3,-1,5,7,-1,-1,-1,-1],"loss_changes":[3.3385498E1,6.178711E0,0E0,7.8125E-1,9.176636E-1,0E0,0E0,0E0,0E0],"parents":[2147483647,0,0,1,1,3,3,4,4],"right_children":[2,4,-1,6,8,-1,-1,-1,-1],"split_conditions":[4.5E1,3E1,1.2164604E-1,4.693617E1,4.6846153E1,8.42315E-2,9.969041E-2,9.949701E-2,1.15577176E-1],"split_indices":[3,3,0,0,0,0,0,0,0],"split_type":[0,0,0,0,0,0,0,0,0],"sum_hessian":[8E2,3.91E2,4.09E2,1.77E2,2.14E2,1.09E2,6.8E1,1.23E2,9.1E1],"tree_param":{"num_deleted":"0","num_feature":"5","num_nodes":"9","size_leaf_vector":"1"}},{"base_weights":[2.111517E0,1.8968898E0,2.3115714E0,1.7242802E0,2.0309718E0,1.09618664E-1,1.2123032E-1,7.1523935E-2,8.943457E-2,9.18417E-2,1.0742872E-1],"categories":[],"categories_nodes":[],"categories_segments":[],"categories_sizes":[],"default_left":[0,0,0,0,0,0,0,0,0,0,0],"id":14,"left_children":[1,3,5,7,9,-1,-1,-1,-1,-1,-1],"loss_changes":[3.0007812E1,5.5704346E0,2.084961E-1,8.0981445E-1,9.621582E-1,0E0,0E0,0E0,0E0,0E0,0E0],"parents":[2147483647,0,0,1,1,2,2,3,3,4,4],"right_children":[2,4,6,8,10,-1,-1,-1,-1,-1,-1],"split_conditions":[4.5E1,3E1,6E1,3.5909092E1,4.2489796E1,1.09618664E-1,1.2123032E-1,7.1523935E-2,8.943457E-2,9.18417E-2,1.0742872E-1],"split_indices":[3,3,3,0,0,0,0,0,0,0,0],"split_type":[0,0,0,0,0,0,0,0,0,0,0],"sum_hessian":[8E2,3.91E2,4.09E2,1.77E2,2.14E2,2.09E2,2E2,3.6E1,1.41E2,8.7E1,1.27E2],"tree_param":{"num_deleted":"0","num_feature":"5","num_nodes":"11","size_leaf_vector":"1"}},{"base_weights":[2.006679E0,1.8029642E0,2.1965559E0,1.6389705E0,1.93035E0,1.04163826E-1,1.1519896E-1,7.5920224E-2,9.03712E-2,8.9780964E-2,1.04548074E-1],"categories":[],"categories_nodes":[],"categories_segments":[],"categories_sizes":[],"default_left":[0,0,0,0,0,0,0,0,0,0,0],"id":15,"left_children":[1,3,5,7,9,-1,-1,-1,-1,-1,-1],"loss_changes":[2.702295E1,5.0252686E0,1.8933105E-1,8.70697E-1,8.978882E-1,0E0,0E0,0E0,0E0,0E0,0E0],"parents":[2147483647,0,0,1,1,2,2,3,3,4,4],"right_children":[2,4,6,8,10,-1,-1,-1,-1,-1,-1],"split_conditions":[4.5E1,3E1,6E1,4.693617E1,4.6846153E1,1.04163826E-1,1.1519896E-1,7.5920224E-2,9.03712E-2,8.9780964E-2,1.04548074E-1],"split_indices":[3,3,3,0,0,0,0,0,0,0,0],"split_type":[0,0,0,0,0,0,0,0,0,0,0],"sum_hessian":[8E2,3.91E2,4.09E2,1.77E2,2.14E2,2.09E2,2E2,1.09E2,6.8E1,1.23E2,9.1E1],"tree_param":{"num_deleted":"0","num_feature":"5","num_nodes":"11","size_leaf_vector":"1"}},{"base_weights":[1.9070691E0,1.7137359E0,2.087263E0,1.5579561E0,1.8347363E0,9.837971E-2,1.09083496E-1,7.1092896E-2,8.4506795E-2,8.0658995E-2,9.599948E-2],"categories":[],"categories_nodes":[],"categories_segments":[],"categories_sizes":[],"default_left":[0,0,0,0,0,0,0,0,0,0,0],"id":16,"left_children":[1,3,5,7,9,-1,-1,-1,-1,-1,-1],"loss_changes":[2.432788E1,4.5305176E0,3.3947754E-1,7.989807E-1,9.637451E-1,0E0,0E0,0E0,0E0,0E0,0E0],"parents":[2147483647,0,0,1,1,2,2,3,3,4,4],"right_children":[2,4,6,8,10,-1,-1,-1,-1,-1,-1],"split_conditions":[4.5E1,3E1,4.4632652E1,4.675E1,4.0244446E1,9.837971E-2,1.09083496E-1,7.1092896E-2,8.4506795E-2,8.0658995E-2,9.599948E-2],"split_indices":[3,3,0,0,0,0,0,0,0,0,0],"split_type":[0,0,0,0,0,0,0,0,0,0,0],"sum_hessian":[8E2,3.91E2,4.09E2,1.77E2,2.14E2,1.9E2,2.19E2,9.3E1,8.4E1,6.5E1,1.49E2],"tree_param":{"num_deleted":"0","num_feature":"5","num_nodes":"11","size_leaf_vector":"1"}},{"base_weights":[1.8123895E0,1.6288968E0,1.983406E0,1.4809326E0,1.7438211E0,9.383003E-2,1.0425631E-1,6.089241E-2,7.695268E-2,8.0968924E-2,9.462969E-2],"categories":[],"categories_nodes":[],"categories_segments":[],"categories_sizes":[],"default_left":[0,0,0,0,0,0,0,0,0,0,0],"id":17,"left_children":[1,3,5,7,9,-1,-1,-1,-1,-1,-1],"loss_changes":[2.1904785E1,4.083374E0,5.415039E-1,8.474121E-1,9.156494E-1,0E0,0E0,0E0,0E0,0E0,0E0],"parents":[2147483647,0,0,1,1,2,2,3,3,4,4],"right_children":[2,4,6,8,10,-1,-1,-1,-1,-1,-1],"split_conditions":[4.5E1,3E1,6E1,3.5909092E1,4.6846153E1,9.383003E-2,1.0425631E-1,6.089241E-2,7.695268E-2,8.0968924E-2,9.462969E-2],"split_indices":[3,3,3,0,0,0,0,0,0,0,0],"split_type":[0,0,0,0,0,0,0,0,0,0,0],"sum_hessian":[8E2,3.91E2,4.09E2,1.77E2,2.14E2,2.09E2,2E2,3.6E1,1.41E2,1.23E2,9.1E1],"tree_param":{"num_deleted":"0","num_feature":"5","num_nodes":"11","size_leaf_vector":"1"}},{"base_weights":[1.7224087E0,1.5482515E0,1.8847188E0,1.4349332E0,1.6892873E0,8.859846E-2,9.8701954E-2,6.464421E-2,7.695313E-2,7.6911695E-2,8.994963E-2],"categories":[],"categories_nodes":[],"categories_segments":[],"categories_sizes":[],"default_left":[0,0,0,0,0,0,0,0,0,0,0],"id":18,"left_children":[1,3,5,7,9,-1,-1,-1,-1,-1,-1],"loss_changes":[1.9724365E1,3.8408203E0,6.3098145E-1,1.3234863E0,3.3294678E-2,0E0,0E0,0E0,0E0,0E0,0E0],"parents":[2147483647,0,0,1,1,2,2,3,3,4,4],"right_children":[2,4,6,8,10,-1,-1,-1,-1,-1,-1],"split_conditions":[4.5E1,4.6846153E1,4.4632652E1,3E1,3E1,8.859846E-2,9.8701954E-2,6.464421E-2,7.695313E-2,7.6911695E-2,8.994963E-2],"split_indices":[3,0,0,3,3,0,0,0,0,0,0],"split_type":[0,0,0,0,0,0,0,0,0,0,0],"sum_hessian":[8E2,3.91E2,4.09E2,2.23E2,1.68E2,1.9E2,2.19E2,1E2,1.23E2,7.7E1,9.1E1],"tree_param":{"num_deleted":"0","num_feature":"5","num_nodes":"11","size_leaf_vector":"1"}},{"base_weights":[1.6369071E0,1.4716258E0,1.7909397E0,1.3409992E0,1.5818911E0,8.451148E-2,9.436245E-2,6.064833E-2,7.1837E-2,1.4393741E0,8.4169425E-2,1.1555898E0,7.530473E-2,1.3084701E0,5.2983034E-1,3.7089307E-2,7.750677E-2,1.0832799E-2,3.1612676E-2],"categories":[],"categories_nodes":[],"categories_segments":[],"categories_sizes":[],"default_left":[0,0,0,0,0,0,0,0,0,0,0,0,0,0,0,0,0,0,0],"id":19,"left_children":[1,3,5,7,9,-1,-1,-1,-1,11,-1,13,-1,15,17,-1,-1,-1,-1],"loss_changes":[1.775708E1,3.5248413E0,7.8674316E-1,5.3726196E-1,5.7128906E-1,0E0,0E0,0E0,0E0,2.0446777E-2,0E0,1.4113941E0,0E0,1.1782455E0,5.5476427E-2,0E0,0E0,0E0,0E0],"parents":[2147483647,0,0,1,1,2,2,3,3,4,4,9,9,11,11,13,13,14,14],"right_children":[2,4,6,8,10,-1,-1,-1,-1,12,-1,14,-1,16,18,-1,-1,-1,-1],"split_conditions":[4.5E1,4.4632652E1,6E1,3E1,3E1,8.451148E-2,9.436245E-2,6.064833E-2,7.1837E-2,3.568554E-1,8.4169425E-2,2.5709867E4,7.530473E-2,2.2890379E4,2.9731476E-1,3.7089307E-2,7.750677E-2,1.0832799E-2,3.1612676E-2],"split_indices":[3,0,3,3,3,0,0,0,0,1,0,4,0,4,1,0,0,0,0],"split_type":[0,0,0,0,0,0,0,0,0,0,0,0,0,0,0,0,0,0,0],"sum_hessian":[8E2,3.91E2,4.09E2,1.85E2,2.06E2,2.09E2,2E2,8.5E1,1E2,9.2E1,1.14E2,2.1E1,7.1E1,1.6E1,5E0,6E0,1E1,2E0,3E0],"tree_param":{"num_deleted":"0","num_feature":"5","num_nodes":"19","size_leaf_vector":"1"}},{"base_weights":[1.5558456E0,1.39919E0,1.701829E0,1.2953275E0,7.642873E-2,7.9779394E-2,8.9316495E-2,5.8363594E-2,6.9459245E-2],"categories":[],"categories_nodes":[],"categories_segments":[],"categories_sizes":[],"default_left":[0,0,0,0,0,0,0,0,0],"id":20,"left_children":[1,3,5,7,-1,-1,-1,-1,-1],"loss_changes":[1.5937012E1,3.2877808E0,8.3044434E-1,1.0706482E0,0E0,0E0,0E0,0E0,0E0],"parents":[2147483647,0,0,1,1,2,2,3,3],"right_children":[2,4,6,8,-1,-1,-1,-1,-1],"split_conditions":[4.5E1,4.6846153E1,4.4632652E1,3E1,7.642873E-2,7.9779394E-2,8.9316495E-2,5.8363594E-2,6.9459245E-2],"split_indices":[3,0,0,3,0,0,0,0,0],"split_type":[0,0,0,0,0,0,0,0,0],"sum_hessian":[8E2,3.91E2,4.09E2,2.23E2,1.68E2,1.9E2,2.19E2,1E2,1.23E2],"tree_param":{"num_deleted":"0","num_feature":"5","num_nodes":"9","size_leaf_vector":"1"}},{"base_weights":[1.4785194E0,1.2069645E0,1.5536127E0,4.899545E-2,6.288136E-2,1.4766052E0,8.5416354E-2,6.975128E-2,7.951444E-2],"categories":[],"categories_nodes":[],"categories_segments":[],"categories_sizes":[],"default_left":[0,0,0,0,0,0,0,0,0],"id":21,"left_children":[1,3,5,-1,-1,7,-1,-1,-1],"loss_changes":[1.445874E1,8.152466E-1,4.911865E0,0E0,0E0,1.7138672E0,0E0,0E0,0E0],"parents":[2147483647,0,0,1,1,2,2,5,5],"right_children":[2,4,6,-1,-1,8,-1,-1,-1],"split_conditions":[3E1,3.5909092E1,6E1,4.899545E-2,6.288136E-2,4.6846153E1,8.5416354E-2,6.975128E-2,7.951444E-2],"split_indices":[3,0,3,0,0,0,0,0,0],"split_type":[0,0,0,0,0,0,0,0,0],"sum_hessian":[8E2,1.77E2,6.23E2,3.6E1,1.41E2,4.23E2,2E2,2.54E2,1.69E2],"tree_param":{"num_deleted":"0","num_feature":"5","num_nodes":"9","size_leaf_vector":"1"}},{"base_weights":[1.4050261E0,1.2622889E0,1.5380698E0,1.1470972E0,1.3596965E0,7.3481396E-2,8.284463E-2,1.039001E0,6.13891E-2,1.2350053E0,1.4487104E0,4.9207807E-2,1.3234749E0,9.7361296E-1,6.4886115E-2,7.270102E-2,2.1084225E-2,7.154082E-2,6.251519E-3,1.1197349E0,3.9733216E-1,2.9529328E-2,6.773358E-2,6.129122E-3,2.520307E-2],"categories":[],"categories_nodes":[],"categories_segments":[],"categories_sizes":[],"default_left":[0,0,0,0,0,0,0,0,0,0,0,0,0,0,0,0,0,0,0,0,0,0,0,0,0],"id":22,"left_children":[1,3,5,7,9,-1,-1,11,-1,13,15,-1,17,19,-1,-1,-1,-1,-1,21,23,-1,-1,-1,-1],"loss_changes":[1.3269775E1,2.8388062E0,8.99292E-1,3.4657288E-1,5.083618E-1,0E0,0E0,3.9260864E-2,0E0,2.6113892E-1,1.4022827E-2,0E0,1.2361755E0,1.4076519E0,0E0,0E0,0E0,0E0,0E0,1.3133278E0,1.1415392E-1,0E0,0E0,0E0,0E0],"parents":[2147483647,0,0,1,1,2,2,3,3,4,4,7,7,9,9,10,10,12,12,13,13,19,19,20,20],"right_children":[2,4,6,8,10,-1,-1,12,-1,14,16,-1,18,20,-1,-1,-1,-1,-1,22,24,-1,-1,-1,-1],"split_conditions":[4.5E1,4.4632652E1,4.95625E1,3E1,3E1,7.3481396E-2,8.284463E-2,2.793715E4,6.13891E-2,3.568554E-1,1.9702897E0,4.9207807E-2,1.5761726E0,2.5709867E4,6.4886115E-2,7.270102E-2,2.1084225E-2,7.154082E-2,6.251519E-3,2.2890379E4,2.9731476E-1,2.9529328E-2,6.773358E-2,6.129122E-3,2.520307E-2],"split_indices":[3,0,0,3,3,0,0,4,0,1,1,0,1,4,0,0,0,0,0,4,1,0,0,0,0],"split_type":[0,0,0,0,0,0,0,0,0,0,0,0,0,0,0,0,0,0,0,0,0,0,0,0,0],"sum_hessian":[8E2,3.91E2,4.09E2,1.85E2,2.06E2,2.68E2,1.41E2,8.5E1,1E2,9.2E1,1.14E2,7.5E1,1E1,2.1E1,7.1E1,1.13E2,1E0,9E0,1E0,1.6E1,5E0,6E0,1E1,2E0,3E0],"tree_param":{"num_deleted":"0","num_feature":"5","num_nodes":"25","size_leaf_vector":"1"}},{"base_weights":[1.3355638E0,1.2003878E0,1.4615476E0,1.1086463E0,1.3148834E0,6.8659686E-2,7.732932E-2,5.000583E-2,5.9405234E-2,5.9812695E-2,1.4011683E0,7.063749E-2,2.9333446E-2],"categories":[],"categories_nodes":[],"categories_segments":[],"categories_sizes":[],"default_left":[0,0,0,0,0,0,0,0,0,0,0,0,0],"id":23,"left_children":[1,3,5,7,9,-1,-1,-1,-1,-1,11,-1,-1],"loss_changes":[1.1886719E1,2.65979E0,9.5684814E-1,7.4346924E-1,5.3710938E-2,0E0,0E0,0E0,0E0,0E0,3.9031982E-2,0E0,0E0],"parents":[2147483647,0,0,1,1,2,2,3,3,4,4,10,10],"right_children":[2,4,6,8,10,-1,-1,-1,-1,-1,12,-1,-1],"split_conditions":[4.5E1,4.6846153E1,6E1,3E1,3E1,6.8659686E-2,7.732932E-2,5.000583E-2,5.9405234E-2,5.9812695E-2,1.9579229E0,7.063749E-2,2.9333446E-2],"split_indices":[3,0,3,3,3,0,0,0,0,0,1,0,0],"split_type":[0,0,0,0,0,0,0,0,0,0,0,0,0],"sum_hessian":[8E2,3.91E2,4.09E2,2.23E2,1.68E2,2.09E2,2E2,1E2,1.23E2,7.7E1,9.1E1,8.9E1,2E0],"tree_param":{"num_deleted":"0","num_feature":"5","num_nodes":"13","size_leaf_vector":"1"}},{"base_weights":[1.2693038E0,1.1410552E0,1.3888263E0,8.737931E-1,1.1740618E0,6.620416E-2,7.508464E-2,5.4674386E-3,4.4401716E-2,1.0672711E0,6.265949E-2,9.978074E-1,5.9994128E-2,5.0390728E-2,-1.5737134E-3],"categories":[],"categories_nodes":[],"categories_segments":[],"categories_sizes":[],"default_left":[0,0,0,0,0,0,0,0,0,0,0,0,0,0,0],"id":24,"left_children":[1,3,5,7,9,-1,-1,-1,-1,11,-1,13,-1,-1,-1],"loss_changes":[1.0693481E1,2.432129E0,1.0075684E0,4.1456604E-1,1.5862427E0,0E0,0E0,0E0,0E0,2.21344E-1,0E0,1.1338348E0,0E0,0E0,0E0],"parents":[2147483647,0,0,1,1,2,2,3,3,4,4,9,9,11,11],"right_children":[2,4,6,8,10,-1,-1,-1,-1,12,-1,14,-1,-1,-1],"split_conditions":[4.5E1,3.581132E1,4.95625E1,1.1658737E-1,3E1,6.620416E-2,7.508464E-2,5.4674386E-3,4.4401716E-2,5.0070175E1,6.265949E-2,1.9579229E0,5.9994128E-2,5.0390728E-2,-1.5737134E-3],"split_indices":[3,0,0,1,3,0,0,0,0,0,0,1,0,0,0],"split_type":[0,0,0,0,0,0,0,0,0,0,0,0,0,0,0],"sum_hessian":[8E2,3.91E2,4.09E2,4.6E1,3.45E2,2.68E2,1.41E2,1E0,4.5E1,1.53E2,1.92E2,1.06E2,4.7E1,1.05E2,1E0],"tree_param":{"num_deleted":"0","num_feature":"5","num_nodes":"15","size_leaf_vector":"1"}},{"base_weights":[1.2062914E0,1.0845671E0,1.3197296E0,9.9940836E-1,1.1910226E0,6.181539E-2,7.001605E-2,8.3116454E-1,1.0382177E0,5.411715E-2,1.2702181E0,5.330753E-3,4.2229895E-2,4.6641443E-2,5.5379864E-2,6.4046696E-2,2.6267016E-2],"categories":[],"categories_nodes":[],"categories_segments":[],"categories_sizes":[],"default_left":[0,0,0,0,0,0,0,0,0,0,0,0,0,0,0,0,0],"id":25,"left_children":[1,3,5,7,9,-1,-1,11,13,-1,15,-1,-1,-1,-1,-1,-1],"loss_changes":[9.629028E0,2.3634033E0,1.0252075E0,5.9965515E-1,7.974243E-2,0E0,0E0,3.6741257E-1,2.683258E-1,0E0,6.1416626E-2,0E0,0E0,0E0,0E0,0E0,0E0],"parents":[2147483647,0,0,1,1,2,2,3,3,4,4,7,7,8,8,10,10],"right_children":[2,4,6,8,10,-1,-1,12,14,-1,16,-1,-1,-1,-1,-1,-1],"split_conditions":[4.5E1,4.6846153E1,6E1,3.581132E1,3E1,6.181539E-2,7.001605E-2,1.1658737E-1,3E1,5.411715E-2,1.9579229E0,5.330753E-3,4.2229895E-2,4.6641443E-2,5.5379864E-2,6.4046696E-2,2.6267016E-2],"split_indices":[3,0,3,0,3,0,0,1,3,0,1,0,0,0,0,0,0],"split_type":[0,0,0,0,0,0,0,0,0,0,0,0,0,0,0,0,0],"sum_hessian":[8E2,3.91E2,4.09E2,2.23E2,1.68E2,2.09E2,2E2,4.6E1,1.77E2,7.7E1,9.1E1,1E0,4.5E1,7.6E1,1.01E2,8.9E1,2E0],"tree_param":{"num_deleted":"0","num_feature":"5","num_nodes":"17","size_leaf_vector":"1"}},{"base_weights":[1.1465085E0,1.0310887E0,1.2540646E0,9.4380665E-1,1.124626E0,5.821481E-2,6.631497E-2,8.4792876E-1,5.066823E-2,1.1488658E0,8.536559E-1,8.008045E-1,1.1307023E0,9.533952E-1,5.978312E-2,3.9362544E-1,9.898364E-1,5.7658125E-2,7.6877207E-1,6.1704766E-2,2.4192806E-3,1.0959924E0,6.058315E-1,7.499677E-2,3.436276E-2,4.0564588E-1,5.2669883E-2,3.5502862E-2,4.7962636E-2,3.7542146E-2,6.216057E-2,4.197434E-2,1.4281447E-2,-1.2838306E-2,1.3558655E-2,3.3310737E-2,-2.8872984E-3],"categories":[],"categories_nodes":[],"categories_segments":[],"categories_sizes":[],"default_left":[0,0,0,0,0,0,0,0,0,0,0,0,0,0,0,0,0,0,0,0,0,0,0,0,0,0,0,0,0,0,0,0,0,0,0,0,0],"id":26,"left_children":[1,3,5,7,9,-1,-1,11,-1,13,15,17,19,21,-1,23,25,-1,27,-1,-1,29,31,33,-1,35,-1,-1,-1,-1,-1,-1,-1,-1,-1,-1,-1],"loss_changes":[8.650513E0,2.138916E0,1.1144409E0,5.345764E-1,2.2782898E-1,0E0,0E0,3.4712982E-1,0E0,3.7852478E-1,8.006706E-1,6.1576843E-2,1.1712332E0,1.1697922E0,0E0,5.098111E-1,9.253979E-2,0E0,2.1359634E-1,0E0,0E0,3.3685684E-1,7.328396E-1,3.2996416E-1,0E0,4.007077E-1,0E0,0E0,0E0,0E0,0E0,0E0,0E0,0E0,0E0,0E0,0E0],"parents":[2147483647,0,0,1,1,2,2,3,3,4,4,7,7,9,9,10,10,11,11,12,12,13,13,15,15,16,16,18,18,21,21,22,22,23,23,25,25],"right_children":[2,4,6,8,10,-1,-1,12,-1,14,16,18,20,22,-1,24,26,-1,28,-1,-1,30,32,34,-1,36,-1,-1,-1,-1,-1,-1,-1,-1,-1,-1,-1],"split_conditions":[4.5E1,4.675E1,4.4632652E1,3E1,1.78373E0,5.821481E-2,6.631497E-2,2.793715E4,5.066823E-2,3.568554E-1,1.8284534E0,2.1329648E4,1.5761726E0,2.5788127E4,5.978312E-2,3E1,2.16274E4,5.7658125E-2,1.6015353E0,6.1704766E-2,2.4192806E-3,2.2890379E4,2.6677805E-1,2.3375006E4,3.436276E-2,1.9354395E0,5.2669883E-2,3.5502862E-2,4.7962636E-2,3.7542146E-2,6.216057E-2,4.197434E-2,1.4281447E-2,-1.2838306E-2,1.3558655E-2,3.3310737E-2,-2.8872984E-3],"split_indices":[3,0,0,3,1,0,0,4,0,1,1,4,1,4,0,3,4,0,1,0,0,4,1,4,0,1,0,0,0,0,0,0,0,0,0,0,0],"split_type":[0,0,0,0,0,0,0,0,0,0,0,0,0,0,0,0,0,0,0,0,0,0,0,0,0,0,0,0,0,0,0,0,0,0,0,0,0],"sum_hessian":[8E2,3.91E2,4.09E2,2.08E2,1.83E2,1.9E2,2.19E2,9.3E1,1.15E2,1.65E2,1.8E1,8.3E1,1E1,3.6E1,1.29E2,5E0,1.3E1,4E0,7.9E1,9E0,1E0,2.4E1,1.2E1,3E0,2E0,2E0,1.1E1,6.4E1,1.5E1,9E0,1.5E1,6E0,6E0,1E0,2E0,1E0,1E0],"tree_param":{"num_deleted":"0","num_feature":"5","num_nodes":"37","size_leaf_vector":"1"}},{"base_weights":[1.0900748E0,8.91518E-1,1.1449674E0,8.319847E-1,1.035421E0,1.0839748E0,6.339661E-2,8.3925074E-1,-2.8151171E-3,6.215767E-1,5.3987112E-2,4.8122432E-2,5.6721866E-2,7.131911E-1,8.799418E-1,9.6720743E-1,-1.6166672E-1,8.2187086E-1,5.369871E-1,7.959202E-1,1.0111356E0,5.397709E-2,1.2946754E-2,-1.8745675E-4,-1.19375475E-2,3.232236E-2,5.7634454E-2,1.9788561E-2,3.6496054E-2,4.143581E-2,5.6599453E-3,5.4209538E-2,2.5084466E-2],"categories":[],"categories_nodes":[],"categories_segments":[],"categories_sizes":[],"default_left":[0,0,0,0,0,0,0,0,0,0,0,0,0,0,0,0,0,0,0,0,0,0,0,0,0,0,0,0,0,0,0,0,0],"id":27,"left_children":[1,3,5,7,9,11,-1,13,-1,15,-1,-1,-1,17,19,21,23,25,27,29,31,-1,-1,-1,-1,-1,-1,-1,-1,-1,-1,-1,-1],"loss_changes":[7.7095947E0,6.634674E-1,3.305603E0,8.927765E-1,2.0927048E-1,1.5083313E0,0E0,3.9268494E-2,0E0,2.0513558E0,0E0,0E0,0E0,2.6721E-1,2.313919E-1,1.1828518E-1,3.562375E-2,4.735489E-1,1.7428875E-1,1.2944031E0,6.842537E-1,0E0,0E0,0E0,0E0,0E0,0E0,0E0,0E0,0E0,0E0,0E0,0E0],"parents":[2147483647,0,0,1,1,2,2,3,3,4,4,5,5,7,7,9,9,13,13,14,14,15,15,16,16,17,17,18,18,19,19,20,20],"right_children":[2,4,6,8,10,12,-1,14,-1,16,-1,-1,-1,18,20,22,24,26,28,30,32,-1,-1,-1,-1,-1,-1,-1,-1,-1,-1,-1,-1],"split_conditions":[3E1,5.0070175E1,6E1,2.0150824E0,1.3138932E-1,4.0244446E1,6.339661E-2,3.5909092E1,-2.8151171E-3,5.132787E1,5.3987112E-2,4.8122432E-2,5.6721866E-2,1.1624705E0,1.2850726E0,5.8055144E-2,1.0945756E-1,1.0258648E0,1.6840698E0,1.2481761E0,1.8217158E0,5.397709E-2,1.2946754E-2,-1.8745675E-4,-1.19375475E-2,3.232236E-2,5.7634454E-2,1.9788561E-2,3.6496054E-2,4.143581E-2,5.6599453E-3,5.4209538E-2,2.5084466E-2],"split_indices":[3,0,3,1,1,0,0,0,0,0,0,0,0,1,1,1,1,1,1,1,1,0,0,0,0,0,0,0,0,0,0,0,0],"split_type":[0,0,0,0,0,0,0,0,0,0,0,0,0,0,0,0,0,0,0,0,0,0,0,0,0,0,0,0,0,0,0,0,0],"sum_hessian":[8E2,1.77E2,6.23E2,1.3E2,4.7E1,4.23E2,2E2,1.29E2,1E0,6E0,4.1E1,1.3E2,2.93E2,3.6E1,9.3E1,4E0,2E0,2E1,1.6E1,6.1E1,3.2E1,3E0,1E0,1E0,1E0,1.5E1,5E0,1.1E1,5E0,5.8E1,3E0,2.7E1,5E0],"tree_param":{"num_deleted":"0","num_feature":"5","num_nodes":"33","size_leaf_vector":"1"}},{"base_weights":[1.0362537E0,9.322241E-1,1.1331887E0,8.573111E-1,1.0260009E0,1.0750127E0,6.1770767E-2,7.0928806E-1,8.915795E-1,9.3086094E-1,1.0955108E0,5.0424833E-2,5.728838E-2,3.50185E-3,3.6083113E-2,8.0293405E-1,4.748786E-2,7.296036E-1,9.833064E-1,5.526794E-2,2.174505E-2,7.522185E-1,1.0388439E0,8.409876E-1,2.2725378E-1,1.2235016E0,8.65478E-1,3.3849027E-2,5.0633498E-2,5.6935705E-2,1.0035599E-3,1.8219821E-2,5.4525137E-2,1.5729604E-2,-3.0524868E-3,8.882283E-3,6.388824E-2,1.5732845E-2,4.9119487E-2],"categories":[],"categories_nodes":[],"categories_segments":[],"categories_sizes":[],"default_left":[0,0,0,0,0,0,0,0,0,0,0,0,0,0,0,0,0,0,0,0,0,0,0,0,0,0,0,0,0,0,0,0,0,0,0,0,0,0,0],"id":28,"left_children":[1,3,5,7,9,11,-1,13,15,17,19,-1,-1,-1,-1,21,-1,23,25,-1,-1,27,29,31,33,35,37,-1,-1,-1,-1,-1,-1,-1,-1,-1,-1,-1,-1],"loss_changes":[7.020996E0,1.8742371E0,1.1102905E0,5.0387573E-1,9.7839355E-2,1.1047363E-1,0E0,3.2123947E-1,1.5538025E-1,1.0586548E-1,1.1779785E-1,0E0,0E0,0E0,0E0,1.3981247E-1,0E0,9.2795753E-1,6.1089325E-1,0E0,0E0,6.273613E-1,1.0963383E0,1.5052919E0,1.4510545E-1,7.3778534E-1,2.4599724E0,0E0,0E0,0E0,0E0,0E0,0E0,0E0,0E0,0E0,0E0,0E0,0E0],"parents":[2147483647,0,0,1,1,2,2,3,3,4,4,5,5,7,7,8,8,9,9,10,10,15,15,17,17,18,18,21,21,22,22,23,23,24,24,25,25,26,26],"right_children":[2,4,6,8,10,12,-1,14,16,18,20,-1,-1,-1,-1,22,-1,24,26,-1,-1,28,30,32,34,36,38,-1,-1,-1,-1,-1,-1,-1,-1,-1,-1,-1,-1],"split_conditions":[4.5E1,4.6846153E1,4.95625E1,3.581132E1,3E1,6E1,6.1770767E-2,1.1658737E-1,3E1,3.568554E-1,1.9579229E0,5.0424833E-2,5.728838E-2,3.50185E-3,3.6083113E-2,2.793715E4,4.748786E-2,2.5183377E4,8.826418E-1,5.526794E-2,2.174505E-2,1.6015353E0,1.5761726E0,2.2890379E4,5.2048782E1,4.693617E1,1.168746E0,3.3849027E-2,5.0633498E-2,5.6935705E-2,1.0035599E-3,1.8219821E-2,5.4525137E-2,1.5729604E-2,-3.0524868E-3,8.882283E-3,6.388824E-2,1.5732845E-2,4.9119487E-2],"split_indices":[3,0,0,0,3,3,0,1,3,1,1,0,0,0,0,4,0,4,1,0,0,1,1,4,0,0,1,0,0,0,0,0,0,0,0,0,0,0,0],"split_type":[0,0,0,0,0,0,0,0,0,0,0,0,0,0,0,0,0,0,0,0,0,0,0,0,0,0,0,0,0,0,0,0,0,0,0,0,0,0,0],"sum_hessian":[8E2,3.91E2,4.09E2,2.23E2,1.68E2,2.68E2,1.41E2,4.6E1,1.77E2,7.7E1,9.1E1,1.46E2,1.22E2,1E0,4.5E1,7.6E1,1.01E2,1.9E1,5.8E1,8.9E1,2E0,6.6E1,1E1,1.5E1,4E0,1.6E1,4.2E1,5.4E1,1.2E1,9E0,1E0,6E0,9E0,3E0,1E0,1E0,1.5E1,8E0,3.4E1],"tree_param":{"num_deleted":"0","num_feature":"5","num_nodes":"39","size_leaf_vector":"1"}},{"base_weights":[9.853137E-1,8.869637E-1,1.0769427E0,8.1547004E-1,9.7647625E-1,1.0216625E0,5.8703985E-2,6.746658E-1,8.480674E-1,9.976904E-1,7.430864E-1,4.7920745E-2,5.4447245E-2,3.4143028E-3,6.863635E-1,7.64637E-1,4.513674E-2,9.412825E-1,5.7378598E-2,2.6971072E-1,8.5907155E-1,7.6958823E-1,5.696784E-1,7.158685E-1,9.921689E-1,4.7759265E-2,9.921614E-2,5.5619216E-1,-1.06674306E-1,3.427399E-1,9.165651E-1,3.074169E-2,6.1734427E-2,2.246838E-2,3.4057286E-2,3.218735E-2,4.8296563E-2,5.43736E-2,9.784723E-4,2.4351759E-2,-1.691055E-2,3.358156E-2,8.132854E-3,7.0944363E-3,-1.50950095E-2,2.9678224E-2,-3.9727287E-3,5.655585E-2,3.0086283E-2],"categories":[],"categories_nodes":[],"categories_segments":[],"categories_sizes":[],"default_left":[0,0,0,0,0,0,0,0,0,0,0,0,0,0,0,0,0,0,0,0,0,0,0,0,0,0,0,0,0,0,0,0,0,0,0,0,0,0,0,0,0,0,0,0,0,0,0,0,0],"id":29,"left_children":[1,3,5,7,9,11,-1,13,15,17,19,-1,-1,-1,21,23,-1,25,-1,27,29,31,33,35,37,-1,39,41,43,45,47,-1,-1,-1,-1,-1,-1,-1,-1,-1,-1,-1,-1,-1,-1,-1,-1,-1,-1],"loss_changes":[6.2631836E0,1.7123413E0,1.0020752E0,4.559784E-1,9.536743E-2,1.010437E-1,0E0,2.8651237E-1,1.2156677E-1,2.0489502E-1,7.565813E-1,0E0,0E0,0E0,8.293152E-3,1.4415741E-1,0E0,1.2632523E0,0E0,5.9846795E-1,1.0145664E-1,9.683037E-1,2.3617744E-3,5.8652496E-1,9.9832726E-1,0E0,6.736483E-1,2.704233E-2,1.8841404E-1,3.6485162E-1,1.299715E-1,0E0,0E0,0E0,0E0,0E0,0E0,0E0,0E0,0E0,0E0,0E0,0E0,0E0,0E0,0E0,0E0,0E0,0E0],"parents":[2147483647,0,0,1,1,2,2,3,3,4,4,5,5,7,7,8,8,9,9,10,10,14,14,15,15,17,17,19,19,20,20,21,21,22,22,23,23,24,24,26,26,27,27,28,28,29,29,30,30],"right_children":[2,4,6,8,10,12,-1,14,16,18,20,-1,-1,-1,22,24,-1,26,-1,28,30,32,34,36,38,-1,40,42,44,46,48,-1,-1,-1,-1,-1,-1,-1,-1,-1,-1,-1,-1,-1,-1,-1,-1,-1,-1],"split_conditions":[4.5E1,4.6846153E1,4.95625E1,3.581132E1,1.78373E0,6E1,5.8703985E-2,1.1658737E-1,3E1,1.43146E0,1.8284534E0,4.7920745E-2,5.4447245E-2,3.4143028E-3,1.1624705E0,2.793715E4,4.513674E-2,1.3717164E0,5.7378598E-2,1.7943032E0,2.16274E4,1.0258648E0,1.6840698E0,1.6015353E0,1.5761726E0,4.7759265E-2,4.693617E1,5.132787E1,4.95625E1,1.9354395E0,3E1,3.074169E-2,6.1734427E-2,2.246838E-2,3.4057286E-2,3.218735E-2,4.8296563E-2,5.43736E-2,9.784723E-4,2.4351759E-2,-1.691055E-2,3.358156E-2,8.132854E-3,7.0944363E-3,-1.50950095E-2,2.9678224E-2,-3.9727287E-3,5.655585E-2,3.0086283E-2],"split_indices":[3,0,0,0,1,3,0,1,3,1,1,0,0,0,1,4,0,1,0,1,4,1,1,1,1,0,0,0,0,1,3,0,0,0,0,0,0,0,0,0,0,0,0,0,0,0,0,0,0],"split_type":[0,0,0,0,0,0,0,0,0,0,0,0,0,0,0,0,0,0,0,0,0,0,0,0,0,0,0,0,0,0,0,0,0,0,0,0,0,0,0,0,0,0,0,0,0,0,0,0,0],"sum_hessian":[8E2,3.91E2,4.09E2,2.23E2,1.68E2,2.68E2,1.41E2,4.6E1,1.77E2,1.51E2,1.7E1,1.46E2,1.22E2,1E0,4.5E1,7.6E1,1.01E2,1.15E2,3.6E1,4E0,1.3E1,2.3E1,2.2E1,6.6E1,1E1,1.13E2,2E0,2E0,2E0,2E0,1.1E1,1.9E1,4E0,1.3E1,9E0,5.4E1,1.2E1,9E0,1E0,1E0,1E0,1E0,1E0,1E0,1E0,1E0,1E0,5E0,6E0],"tree_param":{"num_deleted":"0","num_feature":"5","num_nodes":"49","size_leaf_vector":"1"}},{"base_weights":[9.369883E-1,8.441258E-1,1.0234885E0,7.706942E-1,9.229469E-1,4.7327396E-2,5.4281738E-2,6.441754E-1,8.024469E-1,9.432587E-1,6.969095E-1,3.328946E-3,6.552845E-1,7.1841234E-1,8.564892E-1,7.864245E-1,4.9420446E-2,2.838801E-1,8.241428E-1,7.34962E-1,5.436521E-1,9.5182663E-1,6.3744795E-1,2.647458E-2,8.727675E-1,8.874707E-1,5.667575E-1,1.2897253E-3,2.8302033E-2,3.3417147E-1,8.779571E-1,2.9281458E-2,5.9265055E-2,2.0568611E-2,3.153139E-2,5.6791868E-2,2.764895E-2,5.6748786E-3,3.621081E-2,4.385029E-2,1.2600903E-2,3.0646298E-2,4.9534585E-2,1.4178911E-2,3.5415363E-2,-1.4717634E-2,9.897738E-3,2.893627E-2,-3.8734095E-3,5.4199364E-2,2.8796872E-2],"categories":[],"categories_nodes":[],"categories_segments":[],"categories_sizes":[],"default_left":[0,0,0,0,0,0,0,0,0,0,0,0,0,0,0,0,0,0,0,0,0,0,0,0,0,0,0,0,0,0,0,0,0,0,0,0,0,0,0,0,0,0,0,0,0,0,0,0,0,0,0],"id":30,"left_children":[1,3,5,7,9,-1,-1,11,13,15,17,-1,19,21,23,25,-1,27,29,31,33,35,37,-1,39,41,43,45,-1,47,49,-1,-1,-1,-1,-1,-1,-1,-1,-1,-1,-1,-1,-1,-1,-1,-1,-1,-1,-1,-1],"loss_changes":[5.5702515E0,1.5575867E0,9.328308E-1,3.227005E-1,1.8740845E-1,0E0,0E0,2.5795174E-1,1.24946594E-1,3.9814758E-1,7.64513E-1,0E0,9.586334E-3,7.1613693E-1,3.8238525E-2,4.292736E-1,0E0,4.7768506E-1,7.575607E-2,9.198637E-1,5.1956177E-3,5.461807E-1,2.4182281E0,0E0,1.0505676E-2,1.5792656E-1,4.4048262E-1,2.908386E-1,0E0,3.468371E-1,1.22392654E-1,0E0,0E0,0E0,0E0,0E0,0E0,0E0,0E0,0E0,0E0,0E0,0E0,0E0,0E0,0E0,0E0,0E0,0E0,0E0,0E0],"parents":[2147483647,0,0,1,1,2,2,3,3,4,4,7,7,8,8,9,9,10,10,12,12,13,13,14,14,15,15,17,17,18,18,19,19,20,20,21,21,22,22,24,24,25,25,26,26,27,27,29,29,30,30],"right_children":[2,4,6,8,10,-1,-1,12,14,16,18,-1,20,22,24,26,-1,28,30,32,34,36,38,-1,40,42,44,46,-1,48,50,-1,-1,-1,-1,-1,-1,-1,-1,-1,-1,-1,-1,-1,-1,-1,-1,-1,-1,-1,-1],"split_conditions":[4.5E1,4.675E1,4.4632652E1,3.581132E1,1.78373E0,4.7327396E-2,5.4281738E-2,1.1658737E-1,3E1,4.531531E-1,1.8284534E0,3.328946E-3,1.1624705E0,4.531531E-1,1.653253E-1,2.5788127E4,4.9420446E-2,3E1,2.16274E4,1.0258648E0,3E1,4.0244446E1,5.938639E-1,2.647458E-2,1.9579229E0,2.2890379E4,3E1,2.3375006E4,2.8302033E-2,1.9354395E0,3E1,2.9281458E-2,5.9265055E-2,2.0568611E-2,3.153139E-2,5.6791868E-2,2.764895E-2,5.6748786E-3,3.621081E-2,4.385029E-2,1.2600903E-2,3.0646298E-2,4.9534585E-2,1.4178911E-2,3.5415363E-2,-1.4717634E-2,9.897738E-3,2.893627E-2,-3.8734095E-3,5.4199364E-2,2.8796872E-2],"split_indices":[3,0,0,0,1,0,0,1,3,1,1,0,1,1,1,4,0,3,4,1,3,0,1,0,1,4,3,4,0,1,3,0,0,0,0,0,0,0,0,0,0,0,0,0,0,0,0,0,0,0,0],"split_type":[0,0,0,0,0,0,0,0,0,0,0,0,0,0,0,0,0,0,0,0,0,0,0,0,0,0,0,0,0,0,0,0,0,0,0,0,0,0,0,0,0,0,0,0,0,0,0,0,0,0,0],"sum_hessian":[8E2,3.91E2,4.09E2,2.08E2,1.83E2,1.9E2,2.19E2,4.6E1,1.62E2,1.65E2,1.8E1,1E0,4.5E1,6.9E1,9.3E1,4.1E1,1.24E2,5E0,1.3E1,2.3E1,2.2E1,1.5E1,5.4E1,6E0,8.7E1,2.6E1,1.5E1,3E0,2E0,2E0,1.1E1,1.9E1,4E0,1.1E1,1.1E1,9E0,6E0,8E0,4.6E1,8.6E1,1E0,9E0,1.7E1,6E0,9E0,1E0,2E0,1E0,1E0,5E0,6E0],"tree_param":{"num_deleted":"0","num_feature":"5","num_nodes":"51","size_leaf_vector":"1"}},{"base_weights":[8.910947E-1,8.4012246E-1,5.1953543E-2,7.310037E-1,8.8395035E-1,6.809281E-1,8.5243905E-1,3.9083313E-2,4.6325967E-2,6.8732804E-1,-3.7765757E-3,7.668184E-1,5.691299E-2,6.6084886E-1,9.1370755E-1,3.1875542E-1,8.2172006E-1,4.8987046E-2,3.2070328E-2,5.024417E-2,4.8741156E-5,3.223323E-2,-1.1102098E-2,4.6795893E-2,2.9178604E-2],"categories":[],"categories_nodes":[],"categories_segments":[],"categories_sizes":[],"default_left":[0,0,0,0,0,0,0,0,0,0,0,0,0,0,0,0,0,0,0,0,0,0,0,0,0],"id":31,"left_children":[1,3,-1,5,7,9,11,-1,-1,13,-1,15,-1,17,19,21,23,-1,-1,-1,-1,-1,-1,-1,-1],"loss_changes":[5.168762E0,2.2280579E0,0E0,5.0196075E-1,1.1219482E0,6.861229E-1,3.0182648E-1,0E0,0E0,1.7544174E-1,0E0,7.220478E-1,0E0,1.1558533E-1,9.144316E-1,1.2006476E0,4.0568352E-1,0E0,0E0,0E0,0E0,0E0,0E0,0E0,0E0],"parents":[2147483647,0,0,1,1,3,3,4,4,5,5,6,6,9,9,11,11,13,13,14,14,15,15,16,16],"right_children":[2,4,-1,6,8,10,12,-1,-1,14,-1,16,-1,18,20,22,24,-1,-1,-1,-1,-1,-1,-1,-1],"split_conditions":[6E1,3E1,5.1953543E-2,5.0070175E1,4.0244446E1,2.0150824E0,1E0,3.9083313E-2,4.6325967E-2,2.793715E4,-3.7765757E-3,1.3138932E-1,5.691299E-2,2.1329648E4,1.5761726E0,5.132787E1,1.2918748E0,4.8987046E-2,3.2070328E-2,5.024417E-2,4.8741156E-5,3.223323E-2,-1.1102098E-2,4.6795893E-2,2.9178604E-2],"split_indices":[3,3,0,0,0,1,2,0,0,4,0,1,0,4,1,0,1,0,0,0,0,0,0,0,0],"split_type":[0,0,0,0,0,0,0,0,0,0,0,0,0,0,0,0,0,0,0,0,0,0,0,0,0],"sum_hessian":[8E2,6E2,2E2,1.77E2,4.23E2,1.3E2,4.7E1,1.3E2,2.93E2,1.29E2,1E0,3.9E1,8E0,1.19E2,1E1,5E0,3.4E1,4E0,1.15E2,9E0,1E0,3E0,2E0,2.1E1,1.3E1],"tree_param":{"num_deleted":"0","num_feature":"5","num_nodes":"25","size_leaf_vector":"1"}},{"base_weights":[8.4706306E-1,7.9872704E-1,4.936879E-2,6.960355E-1,8.399543E-1,6.478556E-1,8.1302583E-1,7.8593236E-1,9.160464E-1,6.53972E-1,-3.682162E-3,7.309051E-1,5.4383527E-2,3.347197E-2,4.0320147E-2,4.6605926E-2,6.7037714E-1,6.284819E-1,8.7259436E-1,3.0633953E-1,7.828048E-1,5.203634E-3,3.529667E-2,4.7027566E-2,3.0480636E-2,4.7983184E-2,4.752224E-5,3.1024484E-2,-1.0732024E-2,4.4562455E-2,2.7823884E-2],"categories":[],"categories_nodes":[],"categories_segments":[],"categories_sizes":[],"default_left":[0,0,0,0,0,0,0,0,0,0,0,0,0,0,0,0,0,0,0,0,0,0,0,0,0,0,0,0,0,0,0],"id":32,"left_children":[1,3,-1,5,7,9,11,13,15,17,-1,19,-1,-1,-1,-1,21,23,25,27,29,-1,-1,-1,-1,-1,-1,-1,-1,-1,-1],"loss_changes":[4.64386E0,1.9598083E0,0E0,4.765854E-1,1.0229492E0,6.262665E-1,2.876072E-1,6.826782E-2,4.63562E-2,1.7604446E-1,0E0,6.415882E-1,0E0,0E0,0E0,0E0,2.0843172E-1,1.3324738E-1,8.339157E-1,1.1151779E0,3.6307526E-1,0E0,0E0,0E0,0E0,0E0,0E0,0E0,0E0,0E0,0E0],"parents":[2147483647,0,0,1,1,3,3,4,4,5,5,6,6,7,7,8,8,9,9,11,11,16,16,17,17,18,18,19,19,20,20],"right_children":[2,4,-1,6,8,10,12,14,16,18,-1,20,-1,-1,-1,-1,22,24,26,28,30,-1,-1,-1,-1,-1,-1,-1,-1,-1,-1],"split_conditions":[6E1,3E1,4.936879E-2,5.0070175E1,4.6846153E1,2.0150824E0,1E0,3.581132E1,1.8441484E0,2.793715E4,-3.682162E-3,1.3138932E-1,5.4383527E-2,3.347197E-2,4.0320147E-2,4.6605926E-2,1.8700969E0,2.1329648E4,1.5761726E0,5.132787E1,1.2918748E0,5.203634E-3,3.529667E-2,4.7027566E-2,3.0480636E-2,4.7983184E-2,4.752224E-5,3.1024484E-2,-1.0732024E-2,4.4562455E-2,2.7823884E-2],"split_indices":[3,3,0,0,0,1,2,0,1,4,0,1,0,0,0,0,1,4,1,0,1,0,0,0,0,0,0,0,0,0,0],"split_type":[0,0,0,0,0,0,0,0,0,0,0,0,0,0,0,0,0,0,0,0,0,0,0,0,0,0,0,0,0,0,0],"sum_hessian":[8E2,6E2,2E2,1.77E2,4.23E2,1.3E2,4.7E1,2.54E2,1.69E2,1.29E2,1E0,3.9E1,8E0,4.3E1,2.11E2,1.56E2,1.3E1,1.19E2,1E1,5E0,3.4E1,1E0,1.2E1,4E0,1.15E2,9E0,1E0,3E0,2E0,2.1E1,1.3E1],"tree_param":{"num_deleted":"0","num_feature":"5","num_nodes":"31","size_leaf_vector":"1"}},{"base_weights":[8.053081E-1,7.5950587E-1,9.3825257E-1,6.627445E-1,7.983361E-1,4.260311E-2,4.9466528E-2,6.16393E-1,7.7543837E-1,3.5255842E-2,4.185786E-2,6.222391E-1,-3.5901086E-3,6.966769E-1,5.1966485E-2,5.977037E-1,8.3333105E-1,2.9440463E-1,7.457328E-1,3.0437494E-2,1.662116E-2,4.5823943E-2,4.6333127E-5,2.9861066E-2,-1.0374293E-2,4.2435616E-2,2.6532058E-2],"categories":[],"categories_nodes":[],"categories_segments":[],"categories_sizes":[],"default_left":[0,0,0,0,0,0,0,0,0,0,0,0,0,0,0,0,0,0,0,0,0,0,0,0,0,0,0],"id":33,"left_children":[1,3,5,7,9,-1,-1,11,13,-1,-1,15,-1,17,-1,19,21,23,25,-1,-1,-1,-1,-1,-1,-1,-1],"loss_changes":[4.164795E0,1.7290344E0,4.1915894E-2,4.5181274E-1,9.441223E-1,0E0,0E0,5.7172775E-1,2.7357864E-1,0E0,0E0,1.7521667E-1,0E0,5.6980515E-1,0E0,1.4927292E-1,7.6048946E-1,1.0357999E0,3.2489014E-1,0E0,0E0,0E0,0E0,0E0,0E0,0E0,0E0],"parents":[2147483647,0,0,1,1,2,2,3,3,4,4,7,7,8,8,11,11,13,13,15,15,16,16,17,17,18,18],"right_children":[2,4,6,8,10,-1,-1,12,14,-1,-1,16,-1,18,-1,20,22,24,26,-1,-1,-1,-1,-1,-1,-1,-1],"split_conditions":[6E1,3E1,4.4632652E1,5.0070175E1,4.0244446E1,4.260311E-2,4.9466528E-2,2.0150824E0,1E0,3.5255842E-2,4.185786E-2,2.793715E4,-3.5901086E-3,1.3138932E-1,5.1966485E-2,2.763563E4,1.5761726E0,5.132787E1,1.2918748E0,3.0437494E-2,1.662116E-2,4.5823943E-2,4.6333127E-5,2.9861066E-2,-1.0374293E-2,4.2435616E-2,2.6532058E-2],"split_indices":[3,3,0,0,0,0,0,1,2,0,0,4,0,1,0,4,1,0,1,0,0,0,0,0,0,0,0],"split_type":[0,0,0,0,0,0,0,0,0,0,0,0,0,0,0,0,0,0,0,0,0,0,0,0,0,0,0],"sum_hessian":[8E2,6E2,2E2,1.77E2,4.23E2,8.1E1,1.19E2,1.3E2,4.7E1,1.3E2,2.93E2,1.29E2,1E0,3.9E1,8E0,1.19E2,1E1,5E0,3.4E1,1.13E2,6E0,9E0,1E0,3E0,2E0,2.1E1,1.3E1],"tree_param":{"num_deleted":"0","num_feature":"5","num_nodes":"27","size_leaf_vector":"1"}},{"base_weights":[7.655407E-1,7.2204113E-1,8.9179796E-1,6.8408984E-1,4.0828634E-2,4.049894E-2,4.7013808E-2,5.862554E-1,7.2386765E-1,5.9184206E-1,-3.5003559E-3,3.0113673E-2,3.707626E-2,5.682107E-1,7.958344E-1,4.3928962E-2,2.749672E-2,4.376186E-2,4.5173816E-5],"categories":[],"categories_nodes":[],"categories_segments":[],"categories_sizes":[],"default_left":[0,0,0,0,0,0,0,0,0,0,0,0,0,0,0,0,0,0,0],"id":34,"left_children":[1,3,5,7,-1,-1,-1,9,11,13,-1,-1,-1,15,17,-1,-1,-1,-1],"loss_changes":[3.7552795E0,1.5975647E0,3.565979E-2,1.2685089E0,0E0,0E0,0E0,5.217247E-1,2.082367E-1,1.7447662E-1,0E0,0E0,0E0,1.9752884E-1,6.9352627E-1,0E0,0E0,0E0,0E0],"parents":[2147483647,0,0,1,1,2,2,3,3,7,7,8,8,9,9,13,13,14,14],"right_children":[2,4,6,8,-1,-1,-1,10,12,14,-1,-1,-1,16,18,-1,-1,-1,-1],"split_conditions":[6E1,5.0070175E1,4.4632652E1,3E1,4.0828634E-2,4.049894E-2,4.7013808E-2,2.0150824E0,3.581132E1,2.793715E4,-3.5003559E-3,3.0113673E-2,3.707626E-2,2.1329648E4,1.5761726E0,4.3928962E-2,2.749672E-2,4.376186E-2,4.5173816E-5],"split_indices":[3,0,0,3,0,0,0,1,0,4,0,0,0,4,1,0,0,0,0],"split_type":[0,0,0,0,0,0,0,0,0,0,0,0,0,0,0,0,0,0,0],"sum_hessian":[8E2,6E2,2E2,4.34E2,1.66E2,8.1E1,1.19E2,1.3E2,3.04E2,1.29E2,1E0,4.3E1,2.61E2,1.19E2,1E1,4E0,1.15E2,9E0,1E0],"tree_param":{"num_deleted":"0","num_feature":"5","num_nodes":"19","size_leaf_vector":"1"}},{"base_weights":[7.2764724E-1,6.546546E-1,7.956606E-1,5.920054E-1,7.222581E-1,7.5031495E-1,4.3797933E-2,4.889451E-1,6.180902E-1,5.981016E-1,7.536729E-1,3.5253193E-2,3.991477E-2,3.0751696E-1,5.358393E-1,5.5692756E-1,6.5706146E-1,7.015289E-1,3.8618675E-1,7.8050345E-1,5.3748906E-1,3.658978E-1,-8.366809E-3,7.2870183E-1,3.951474E-1,7.993243E-1,4.876209E-1,2.1959892E-2,6.8064344E-1,7.2812164E-1,1.2303988E-2,1.4074019E-1,2.5969034E-2,7.184306E-1,4.4303294E-2,2.9742602E-1,7.711784E-1,2.3359603E-4,2.0077659E-2,2.505881E-2,5.1900644E-2,1.4470535E-2,2.51832E-2,4.8135247E-2,2.1051629E-2,5.58514E-3,2.826134E-2,3.4240063E-2,8.492493E-3,2.3885103E-2,4.1956317E-2,-8.727792E-3,1.5088488E-2,3.6861606E-2,-1.7477155E-3,7.759902E-3,1.9504149E-2,1.3857397E-2,4.3636873E-2],"categories":[],"categories_nodes":[],"categories_segments":[],"categories_sizes":[],"default_left":[0,0,0,0,0,0,0,0,0,0,0,0,0,0,0,0,0,0,0,0,0,0,0,0,0,0,0,0,0,0,0,0,0,0,0,0,0,0,0,0,0,0,0,0,0,0,0,0,0,0,0,0,0,0,0,0,0,0,0],"id":35,"left_children":[1,3,5,7,9,11,-1,13,15,17,19,-1,-1,21,23,25,27,29,31,33,35,37,-1,39,41,43,45,-1,47,49,-1,51,-1,53,-1,55,57,-1,-1,-1,-1,-1,-1,-1,-1,-1,-1,-1,-1,-1,-1,-1,-1,-1,-1,-1,-1,-1,-1],"loss_changes":[3.455658E0,1.2326508E0,8.3566284E-1,2.5964355E-1,2.668991E-1,2.11792E-2,0E0,2.3509312E-1,2.2583008E-2,6.496258E-1,4.09935E-1,0E0,0E0,3.9389598E-1,6.8888664E-1,7.862129E-1,1.8400192E-1,1.4783859E-1,4.4997406E-1,1.8249512E-1,8.36535E-1,1.3980007E-1,0E0,4.6503925E-1,1.181407E-1,4.5994663E-1,1.5997515E0,0E0,5.995941E-2,2.9409027E-1,0E0,4.0807956E-1,0E0,1.2156143E0,0E0,8.442247E-2,2.0968199E-1,0E0,0E0,0E0,0E0,0E0,0E0,0E0,0E0,0E0,0E0,0E0,0E0,0E0,0E0,0E0,0E0,0E0,0E0,0E0,0E0,0E0,0E0],"parents":[2147483647,0,0,1,1,2,2,3,3,4,4,5,5,7,7,8,8,9,9,10,10,13,13,14,14,15,15,16,16,17,17,18,18,19,19,20,20,21,21,23,23,24,24,25,25,26,26,28,28,29,29,31,31,33,33,35,35,36,36],"right_children":[2,4,6,8,10,12,-1,14,16,18,20,-1,-1,22,24,26,28,30,32,34,36,38,-1,40,42,44,46,-1,48,50,-1,52,-1,54,-1,56,58,-1,-1,-1,-1,-1,-1,-1,-1,-1,-1,-1,-1,-1,-1,-1,-1,-1,-1,-1,-1,-1,-1],"split_conditions":[4.5E1,4.675E1,4.95625E1,3.581132E1,4.531531E-1,6E1,4.3797933E-2,7.689916E-1,3E1,2.5788127E4,1.78373E0,3.5253193E-2,3.991477E-2,7.363779E-1,1.1624705E0,3.9545566E-1,3.4822854E-1,3.335176E-1,3E1,1.43146E0,1.9200462E0,1.1658737E-1,-8.366809E-3,1.0258648E0,1.6840698E0,4.0244446E1,5.938639E-1,2.1959892E-2,1.9579229E0,2.2890379E4,1.2303988E-2,2.9731476E-1,2.5969034E-2,1.3717164E0,4.4303294E-2,1.8284534E0,5.0070175E1,2.3359603E-4,2.0077659E-2,2.505881E-2,5.1900644E-2,1.4470535E-2,2.51832E-2,4.8135247E-2,2.1051629E-2,5.58514E-3,2.826134E-2,3.4240063E-2,8.492493E-3,2.3885103E-2,4.1956317E-2,-8.727792E-3,1.5088488E-2,3.6861606E-2,-1.7477155E-3,7.759902E-3,1.9504149E-2,1.3857397E-2,4.3636873E-2],"split_indices":[3,0,0,0,1,3,0,1,3,4,1,0,0,1,1,1,1,1,3,1,1,1,0,1,1,0,1,0,1,4,0,1,0,1,0,1,0,0,0,0,0,0,0,0,0,0,0,0,0,0,0,0,0,0,0,0,0,0,0],"split_type":[0,0,0,0,0,0,0,0,0,0,0,0,0,0,0,0,0,0,0,0,0,0,0,0,0,0,0,0,0,0,0,0,0,0,0,0,0,0,0,0,0,0,0,0,0,0,0,0,0,0,0,0,0,0,0,0,0,0,0],"sum_hessian":[8E2,3.91E2,4.09E2,2.08E2,1.83E2,2.68E2,1.41E2,4.6E1,1.62E2,4.1E1,1.42E2,1.46E2,1.22E2,1.1E1,3.5E1,6.9E1,9.3E1,2.6E1,1.5E1,1.24E2,1.8E1,1E1,1E0,1.3E1,2.2E1,1.3E1,5.6E1,1.1E1,8.2E1,2.4E1,2E0,6E0,9E0,8.3E1,4.1E1,1E1,8E0,1E0,9E0,9E0,4E0,1.3E1,9E0,8E0,5E0,1E1,4.6E1,8.1E1,1E0,9E0,1.5E1,2E0,4E0,8.1E1,2E0,5E0,5E0,2E0,6E0],"tree_param":{"num_deleted":"0","num_feature":"5","num_nodes":"59","size_leaf_vector":"1"}},{"base_weights":[6.9212615E-1,6.527497E-1,8.064203E-1,6.01842E-1,7.101225E-1,3.5463057E-2,4.2043384E-2,5.127091E-1,6.3536197E-1,6.268066E-1,7.4313664E-1,6.8369895E-1,4.6607885E-1,6.5605956E-1,2.7117673E-2,4.318489E-1,6.801498E-1,7.5550604E-1,5.310203E-1,1.1583577E-1,7.4744207E-1,-9.555014E-3,5.213633E-1,2.5029307E-2,3.3490982E-2,5.6315833E-1,9.715638E-3,8.88463E-1,5.814668E-1,3.425699E-2,4.018807E-2,2.612584E-3,2.8191462E-2,2.2775478E-4,8.459928E-3,4.5439344E-2,2.0508608E-2,-1.1805071E-2,4.4450653E-3,2.3648739E-2,4.1560188E-2,9.102813E-3,3.86807E-2,-8.436865E-3,7.0563215E-3,2.1642674E-2,4.734182E-2,9.595814E-3,3.3433918E-2],"categories":[],"categories_nodes":[],"categories_segments":[],"categories_sizes":[],"default_left":[0,0,0,0,0,0,0,0,0,0,0,0,0,0,0,0,0,0,0,0,0,0,0,0,0,0,0,0,0,0,0,0,0,0,0,0,0,0,0,0,0,0,0,0,0,0,0,0,0],"id":36,"left_children":[1,3,5,7,9,-1,-1,11,13,15,17,19,21,23,-1,25,27,29,31,33,35,37,39,-1,-1,41,43,45,47,-1,-1,-1,-1,-1,-1,-1,-1,-1,-1,-1,-1,-1,-1,-1,-1,-1,-1,-1,-1],"loss_changes":[3.0785217E0,1.3279724E0,7.632446E-2,6.452484E-1,2.9611206E-1,0E0,0E0,4.3083E-1,9.0797424E-2,5.902481E-1,1.0518646E-1,5.649719E-1,2.0297089E0,6.047058E-2,0E0,1.1585605E0,8.195915E-1,6.0516357E-2,1.9044971E-1,1.7044023E-2,4.9790955E-1,2.2173403E-1,6.413593E-1,0E0,0E0,1.1424398E0,1.6451713E-1,9.547329E-2,1.4684153E0,0E0,0E0,0E0,0E0,0E0,0E0,0E0,0E0,0E0,0E0,0E0,0E0,0E0,0E0,0E0,0E0,0E0,0E0,0E0,0E0],"parents":[2147483647,0,0,1,1,2,2,3,3,4,4,7,7,8,8,9,9,10,10,11,11,12,12,13,13,15,15,16,16,17,17,18,18,19,19,20,20,21,21,22,22,25,25,26,26,27,27,28,28],"right_children":[2,4,6,8,10,-1,-1,12,14,16,18,20,22,24,-1,26,28,30,32,34,36,38,40,-1,-1,42,44,46,48,-1,-1,-1,-1,-1,-1,-1,-1,-1,-1,-1,-1,-1,-1,-1,-1,-1,-1,-1,-1],"split_conditions":[6E1,4.675E1,4.225E1,3E1,3E1,3.5463057E-2,4.2043384E-2,4.531531E-1,1.6142943E0,3.568554E-1,1.8441484E0,3.581132E1,5.938639E-1,3.4954544E1,2.7117673E-2,2.5183377E4,9.2303383E-1,8.4583825E-1,1.8700969E0,3.4954544E1,4.0244446E1,3.6333332E1,2.793715E4,2.5029307E-2,3.3490982E-2,2.2890379E4,2.9731476E-1,4.693617E1,1.168746E0,3.425699E-2,4.018807E-2,2.612584E-3,2.8191462E-2,2.2775478E-4,8.459928E-3,4.5439344E-2,2.0508608E-2,-1.1805071E-2,4.4450653E-3,2.3648739E-2,4.1560188E-2,9.102813E-3,3.86807E-2,-8.436865E-3,7.0563215E-3,2.1642674E-2,4.734182E-2,9.595814E-3,3.3433918E-2],"split_indices":[3,0,0,3,3,0,0,1,1,1,1,0,1,0,0,4,1,1,1,0,0,0,4,0,0,4,1,0,1,0,0,0,0,0,0,0,0,0,0,0,0,0,0,0,0,0,0,0,0],"split_type":[0,0,0,0,0,0,0,0,0,0,0,0,0,0,0,0,0,0,0,0,0,0,0,0,0,0,0,0,0,0,0,0,0,0,0,0,0,0,0,0,0,0,0,0,0,0,0,0,0],"sum_hessian":[8E2,6E2,2E2,3.24E2,2.76E2,5.8E1,1.42E2,9.3E1,2.31E2,8.4E1,1.92E2,1.7E1,7.6E1,1.84E2,4.7E1,2E1,6.4E1,1.79E2,1.3E1,2E0,1.5E1,8E0,6.8E1,1.8E1,1.66E2,1.5E1,5E0,1.8E1,4.6E1,7.9E1,1E2,1E0,1.2E1,1E0,1E0,9E0,6E0,2E0,6E0,6.1E1,7E0,6E0,9E0,2E0,3E0,3E0,1.5E1,9E0,3.7E1],"tree_param":{"num_deleted":"0","num_feature":"5","num_nodes":"49","size_leaf_vector":"1"}},{"base_weights":[6.582181E-1,5.927737E-1,7.191839E-1,5.2842075E-1,6.4773446E-1,6.7749363E-1,3.9654803E-2,5.053891E-1,6.5071595E-1,5.282583E-1,6.767448E-1,3.1861465E-2,3.6005314E-2,4.4973528E-1,5.486949E-1,7.4468374E-1,2.1337594E-1,6.0764015E-1,3.4640118E-1,6.9552803E-1,4.977812E-1,6.514579E-1,3.9367762E-1,1.956184E-2,5.6894165E-1,4.2852938E-1,4.730444E-2,1.3483154E-2,-1.7014927E-3,1.1705184E-2,6.404737E-1,1.2723514E-1,2.3258865E-2,6.372594E-1,3.9674662E-2,1.7443189E-1,7.7135235E-1,5.646993E-3,3.628096E-2,2.6213601E-3,2.2531832E-2,2.8628489E-2,7.602238E-3,2.726916E-2,1.2986481E-2,3.3295345E-2,1.0751955E-2,-8.155635E-3,1.3799841E-2,3.8261283E-2,2.466755E-2,1.5258734E-2,-1.1617976E-2,1.2368394E-2,4.3571375E-2],"categories":[],"categories_nodes":[],"categories_segments":[],"categories_sizes":[],"default_left":[0,0,0,0,0,0,0,0,0,0,0,0,0,0,0,0,0,0,0,0,0,0,0,0,0,0,0,0,0,0,0,0,0,0,0,0,0,0,0,0,0,0,0,0,0,0,0,0,0,0,0,0,0,0,0],"id":37,"left_children":[1,3,5,7,9,11,-1,13,15,17,19,-1,-1,21,23,25,27,29,31,33,35,37,39,-1,41,43,-1,-1,-1,-1,45,47,-1,49,-1,51,53,-1,-1,-1,-1,-1,-1,-1,-1,-1,-1,-1,-1,-1,-1,-1,-1,-1,-1],"loss_changes":[2.7696228E0,1.0441742E0,7.2605896E-1,1.9503403E-1,3.5997772E-1,2.670288E-3,0E0,1.4126205E-1,9.095955E-1,4.3913937E-1,2.0170593E-1,0E0,0E0,6.0295105E-1,5.157852E-2,9.317503E-1,9.273115E-2,2.1799946E-1,3.573203E-1,3.2204437E-1,1.546174E0,5.1710606E-1,1.1814852E0,0E0,2.4873734E-2,5.559683E-2,0E0,0E0,0E0,0E0,1.4894867E-1,3.4736693E-1,0E0,1.3903542E0,0E0,6.027607E-1,3.08815E-1,0E0,0E0,0E0,0E0,0E0,0E0,0E0,0E0,0E0,0E0,0E0,0E0,0E0,0E0,0E0,0E0,0E0,0E0],"parents":[2147483647,0,0,1,1,2,2,3,3,4,4,5,5,7,7,8,8,9,9,10,10,13,13,14,14,15,15,16,16,17,17,18,18,19,19,20,20,21,21,22,22,24,24,25,25,30,30,31,31,33,33,35,35,36,36],"right_children":[2,4,6,8,10,12,-1,14,16,18,20,-1,-1,22,24,26,28,30,32,34,36,38,40,-1,42,44,-1,-1,-1,-1,46,48,-1,50,-1,52,54,-1,-1,-1,-1,-1,-1,-1,-1,-1,-1,-1,-1,-1,-1,-1,-1,-1,-1],"split_conditions":[4.5E1,4.4632652E1,4.95625E1,2.793715E4,4.531531E-1,6E1,3.9654803E-2,3E1,1.6142943E0,2.5788127E4,1.7943032E0,3.1861465E-2,3.6005314E-2,4.531531E-1,3.4822854E-1,6.9707036E-1,1.7528538E0,4.675E1,3E1,1.43146E0,1.9200462E0,3.581132E1,7.689916E-1,1.956184E-2,1.9913692E0,3.551132E-1,4.730444E-2,1.3483154E-2,-1.7014927E-3,1.1705184E-2,3.335176E-1,2.9731476E-1,2.3258865E-2,9.517398E-1,3.9674662E-2,4.95625E1,2.16274E4,5.646993E-3,3.628096E-2,2.6213601E-3,2.2531832E-2,2.8628489E-2,7.602238E-3,2.726916E-2,1.2986481E-2,3.3295345E-2,1.0751955E-2,-8.155635E-3,1.3799841E-2,3.8261283E-2,2.466755E-2,1.5258734E-2,-1.1617976E-2,1.2368394E-2,4.3571375E-2],"split_indices":[3,0,0,4,1,3,0,3,1,4,1,0,0,1,1,1,1,0,3,1,1,0,1,0,1,1,0,0,0,0,1,1,0,1,0,0,4,0,0,0,0,0,0,0,0,0,0,0,0,0,0,0,0,0,0],"split_type":[0,0,0,0,0,0,0,0,0,0,0,0,0,0,0,0,0,0,0,0,0,0,0,0,0,0,0,0,0,0,0,0,0,0,0,0,0,0,0,0,0,0,0,0,0,0,0,0,0,0,0,0,0,0,0],"sum_hessian":[8E2,3.91E2,4.09E2,1.85E2,2.06E2,2.68E2,1.41E2,1.6E2,2.5E1,4.4E1,1.62E2,1.46E2,1.22E2,7.5E1,8.5E1,2E1,5E0,2.9E1,1.5E1,1.44E2,1.8E1,1.4E1,6.1E1,1.2E1,7.3E1,9E0,1.1E1,4E0,1E0,3E0,2.6E1,6E0,9E0,9.5E1,4.9E1,9E0,9E0,2E0,1.2E1,9E0,5.2E1,7.2E1,1E0,4E0,5E0,2.4E1,2E0,2E0,4E0,4.8E1,4.7E1,7E0,2E0,2E0,7E0],"tree_param":{"num_deleted":"0","num_feature":"5","num_nodes":"55","size_leaf_vector":"1"}},{"base_weights":[6.2602705E-1,5.904657E-1,7.292425E-1,5.444284E-1,6.42349E-1,3.2905154E-2,3.8588878E-2,4.6523595E-1,5.741683E-1,5.677598E-1,6.718709E-1,6.2516564E-1,4.2180777E-1,5.9344107E-1,4.8792607E-1,3.87489E-1,6.172664E-1,6.83209E-1,4.7810438E-1,1.0917523E-1,6.8284094E-1,-1.7336823E-2,4.7297436E-1,2.2491133E-2,3.031137E-2,2.604892E-2,1.7943192E-2,5.067724E-1,4.818401E-3,8.127106E-1,5.251237E-1,6.170668E-1,7.2883445E-1,2.1657995E-3,2.5410881E-2,8.088594E-5,8.107256E-3,4.1852057E-2,1.8250315E-2,-1.1671699E-2,3.8876466E-3,2.1390587E-2,3.819314E-2,7.2857463E-3,3.5441767E-2,-7.883782E-3,6.274216E-3,1.9396279E-2,4.3405622E-2,9.950782E-3,3.0961981E-2,3.309745E-2,2.4919521E-2,4.611779E-2,3.4746673E-2],"categories":[],"categories_nodes":[],"categories_segments":[],"categories_sizes":[],"default_left":[0,0,0,0,0,0,0,0,0,0,0,0,0,0,0,0,0,0,0,0,0,0,0,0,0,0,0,0,0,0,0,0,0,0,0,0,0,0,0,0,0,0,0,0,0,0,0,0,0,0,0,0,0,0,0],"id":38,"left_children":[1,3,5,7,9,-1,-1,11,13,15,17,19,21,23,25,27,29,31,33,35,37,39,41,-1,-1,-1,-1,43,45,47,49,51,53,-1,-1,-1,-1,-1,-1,-1,-1,-1,-1,-1,-1,-1,-1,-1,-1,-1,-1,-1,-1,-1,-1],"loss_changes":[2.50943E0,1.0858154E0,1.0029602E-1,4.983139E-1,2.2849274E-1,0E0,0E0,3.891716E-1,9.6069336E-2,5.194092E-1,9.736633E-2,4.611292E-1,1.7383528E0,6.702423E-2,1.7798424E-2,9.5612955E-1,7.437935E-1,9.346008E-2,1.6128683E-1,1.6829625E-2,4.7863674E-1,2.0308782E-1,5.7968235E-1,0E0,0E0,0E0,0E0,1.0640135E0,1.3743076E-1,1.1038113E-1,1.3192825E0,9.620476E-2,2.1640778E-2,0E0,0E0,0E0,0E0,0E0,0E0,0E0,0E0,0E0,0E0,0E0,0E0,0E0,0E0,0E0,0E0,0E0,0E0,0E0,0E0,0E0,0E0],"parents":[2147483647,0,0,1,1,2,2,3,3,4,4,7,7,8,8,9,9,10,10,11,11,12,12,13,13,14,14,15,15,16,16,17,17,18,18,19,19,20,20,21,21,22,22,27,27,28,28,29,29,30,30,31,31,32,32],"right_children":[2,4,6,8,10,-1,-1,12,14,16,18,20,22,24,26,28,30,32,34,36,38,40,42,-1,-1,-1,-1,44,46,48,50,52,54,-1,-1,-1,-1,-1,-1,-1,-1,-1,-1,-1,-1,-1,-1,-1,-1,-1,-1,-1,-1,-1,-1],"split_conditions":[6E1,4.675E1,4.4632652E1,3E1,3E1,3.2905154E-2,3.8588878E-2,4.531531E-1,1.6142943E0,3.568554E-1,1.8441484E0,3.581132E1,5.938639E-1,3.4954544E1,1E0,2.5183377E4,9.2303383E-1,8.4583825E-1,1.8700969E0,3.4954544E1,4.0244446E1,3.6333332E1,2.793715E4,2.2491133E-2,3.031137E-2,2.604892E-2,1.7943192E-2,2.2890379E4,2.9731476E-1,4.693617E1,1.1932144E0,6.566184E-1,9.882914E-1,2.1657995E-3,2.5410881E-2,8.088594E-5,8.107256E-3,4.1852057E-2,1.8250315E-2,-1.1671699E-2,3.8876466E-3,2.1390587E-2,3.819314E-2,7.2857463E-3,3.5441767E-2,-7.883782E-3,6.274216E-3,1.9396279E-2,4.3405622E-2,9.950782E-3,3.0961981E-2,3.309745E-2,2.4919521E-2,4.611779E-2,3.4746673E-2],"split_indices":[3,0,0,3,3,0,0,1,1,1,1,0,1,0,2,4,1,1,1,0,0,0,4,0,0,0,0,4,1,0,1,1,1,0,0,0,0,0,0,0,0,0,0,0,0,0,0,0,0,0,0,0,0,0,0],"split_type":[0,0,0,0,0,0,0,0,0,0,0,0,0,0,0,0,0,0,0,0,0,0,0,0,0,0,0,0,0,0,0,0,0,0,0,0,0,0,0,0,0,0,0,0,0,0,0,0,0,0,0,0,0,0,0],"sum_hessian":[8E2,6E2,2E2,3.24E2,2.76E2,8.1E1,1.19E2,9.3E1,2.31E2,8.4E1,1.92E2,1.7E1,7.6E1,1.84E2,4.7E1,2E1,6.4E1,1.79E2,1.3E1,2E0,1.5E1,8E0,6.8E1,1.8E1,1.66E2,3.5E1,1.2E1,1.5E1,5E0,1.8E1,4.6E1,7.9E1,1E2,1E0,1.2E1,1E0,1E0,9E0,6E0,2E0,6E0,6.1E1,7E0,6E0,9E0,2E0,3E0,3E0,1.5E1,1.1E1,3.5E1,5.4E1,2.5E1,1.1E1,8.9E1],"tree_param":{"num_deleted":"0","num_feature":"5","num_nodes":"55","size_leaf_vector":"1"}},{"base_weights":[5.9547436E-1,5.618213E-1,6.9313616E-1,5.318728E-1,6.3646656E-1,3.0332837E-2,3.619847E-2,4.57926E-1,5.618897E-1,6.1311954E-1,3.930289E-2,4.631957E-1,-5.678387E-3,2.320992E-2,5.7615125E-1,4.8219898E-1,3.217138E-2,4.4316304E-1,6.3962543E-1,5.787297E-1,1.3257998E-2,5.823007E-1,2.037451E-1,3.6487762E-2,2.1349479E-2,3.5702154E-2,-2.6137836E-3,2.2376554E-2,2.9362578E-2,3.9512612E-2,2.3121033E-2,1.6086882E-2,-2.6839068E-3],"categories":[],"categories_nodes":[],"categories_segments":[],"categories_sizes":[],"default_left":[0,0,0,0,0,0,0,0,0,0,0,0,0,0,0,0,0,0,0,0,0,0,0,0,0,0,0,0,0,0,0,0,0],"id":39,"left_children":[1,3,5,7,9,-1,-1,11,13,15,-1,17,-1,-1,19,21,-1,23,25,27,-1,29,31,-1,-1,-1,-1,-1,-1,-1,-1,-1,-1],"loss_changes":[2.243164E0,1.0050201E0,9.675598E-2,7.0825195E-1,1.0129547E-1,0E0,0E0,4.4712448E-1,1.5748596E-1,2.809639E-1,0E0,1.7601013E-1,0E0,0E0,5.6640625E-2,7.733178E-1,0E0,2.4462509E-1,6.0371304E-1,2.6763916E-2,0E0,2.0794344E-1,3.210106E-1,0E0,0E0,0E0,0E0,0E0,0E0,0E0,0E0,0E0,0E0],"parents":[2147483647,0,0,1,1,2,2,3,3,4,4,7,7,8,8,9,9,11,11,14,14,15,15,17,17,18,18,19,19,21,21,22,22],"right_children":[2,4,6,8,10,-1,-1,12,14,16,-1,18,-1,-1,20,22,-1,24,26,28,-1,30,32,-1,-1,-1,-1,-1,-1,-1,-1,-1,-1],"split_conditions":[6E1,5.0070175E1,4.225E1,3E1,6.205128E1,3.0332837E-2,3.619847E-2,2.0150824E0,3.581132E1,3.568554E-1,3.930289E-2,2.793715E4,-5.678387E-3,2.320992E-2,1.9913692E0,2.4230045E4,3.217138E-2,2.1329648E4,1.5761726E0,1.7877501E-1,1.3257998E-2,1.02791466E-1,2.6677805E-1,3.6487762E-2,2.1349479E-2,3.5702154E-2,-2.6137836E-3,2.2376554E-2,2.9362578E-2,3.9512612E-2,2.3121033E-2,1.6086882E-2,-2.6839068E-3],"split_indices":[3,0,0,3,0,0,0,1,0,1,0,4,0,0,1,4,0,4,1,1,0,1,1,0,0,0,0,0,0,0,0,0,0],"split_type":[0,0,0,0,0,0,0,0,0,0,0,0,0,0,0,0,0,0,0,0,0,0,0,0,0,0,0,0,0,0,0,0,0],"sum_hessian":[8E2,6E2,2E2,4.34E2,1.66E2,5.8E1,1.42E2,1.3E2,3.04E2,1.48E2,1.8E1,1.29E2,1E0,4.3E1,2.61E2,3.1E1,1.17E2,1.19E2,1E1,2.58E2,3E0,2.2E1,9E0,4E0,1.15E2,9E0,1E0,1.9E1,2.39E2,6E0,1.6E1,6E0,3E0],"tree_param":{"num_deleted":"0","num_feature":"5","num_nodes":"33","size_leaf_vector":"1"}},{"base_weights":[5.661844E-1,5.098354E-1,6.1867857E-1,4.524196E-1,5.589634E-1,2.9088E-2,3.4212954E-2,4.3171468E-1,5.6323004E-1,4.5393398E-1,5.8453006E-1,7.0500576E-1,4.2206356E-1,6.507179E-1,1.6315085E-1,3.5978336E-2,3.94617E-1,6.0302067E-1,4.3078318E-1,4.8117932E-2,-1.6763213E-3,-1.6252485E-1,4.344267E-1,3.559881E-1,4.210498E-2,1.0808426E-2,-2.548439E-3,1.697726E-1,4.7688544E-1,5.4721457E-1,7.020699E-1,1.8061732E-1,6.879039E-1,-1.8840478E-3,-1.3426413E-2,2.7392576E-2,2.0525645E-2,2.3433832E-2,1.0137482E-2,-4.609957E-3,1.8503329E-2,7.1998173E-3,2.8056404E-2,3.3298295E-2,2.072945E-2,3.132363E-2,4.3832786E-2,2.5321352E-3,1.3311083E-2,1.0621827E-2,3.9010808E-2],"categories":[],"categories_nodes":[],"categories_segments":[],"categories_sizes":[],"default_left":[0,0,0,0,0,0,0,0,0,0,0,0,0,0,0,0,0,0,0,0,0,0,0,0,0,0,0,0,0,0,0,0,0,0,0,0,0,0,0,0,0,0,0,0,0,0,0,0,0,0,0],"id":40,"left_children":[1,3,5,7,9,-1,-1,11,13,15,17,19,21,23,25,-1,27,29,31,-1,-1,33,35,37,-1,-1,-1,39,41,43,45,47,49,-1,-1,-1,-1,-1,-1,-1,-1,-1,-1,-1,-1,-1,-1,-1,-1,-1,-1],"loss_changes":[2.0539246E0,8.5284424E-1,5.946045E-1,1.8358994E-1,2.9050446E-1,0E0,0E0,1.2709045E-1,8.038883E-1,4.2509174E-1,2.0362091E-1,7.925179E-1,1.2125282E0,8.8474655E-1,7.9130605E-2,0E0,6.404443E-1,4.062538E-1,1.226532E0,0E0,0E0,4.28171E-2,1.9552422E-1,7.7658296E-2,0E0,0E0,0E0,6.6377604E-1,7.044158E-1,1.2358456E0,8.431244E-2,1.20034486E-1,2.731681E-1,0E0,0E0,0E0,0E0,0E0,0E0,0E0,0E0,0E0,0E0,0E0,0E0,0E0,0E0,0E0,0E0,0E0,0E0],"parents":[2147483647,0,0,1,1,2,2,3,3,4,4,7,7,8,8,9,9,10,10,11,11,12,12,13,13,14,14,16,16,17,17,18,18,21,21,22,22,23,23,27,27,28,28,29,29,30,30,31,31,32,32],"right_children":[2,4,6,8,10,-1,-1,12,14,16,18,20,22,24,26,-1,28,30,32,-1,-1,34,36,38,-1,-1,-1,40,42,44,46,48,50,-1,-1,-1,-1,-1,-1,-1,-1,-1,-1,-1,-1,-1,-1,-1,-1,-1,-1],"split_conditions":[4.5E1,4.4632652E1,4.95625E1,2.793715E4,4.531531E-1,2.9088E-2,3.4212954E-2,5.8055144E-2,1.6142943E0,6.775728E-2,1.78373E0,2.6010246E4,1.1658737E-1,6.9707036E-1,1.7528538E0,3.5978336E-2,1.6062157E-1,1.43146E0,1.9200462E0,4.8117932E-2,-1.6763213E-3,3.5909092E1,4.258153E-1,3.551132E-1,4.210498E-2,1.0808426E-2,-2.548439E-3,2.3375006E4,4.95625E1,9.517398E-1,1E0,1.8284534E0,2.16274E4,-1.8840478E-3,-1.3426413E-2,2.7392576E-2,2.0525645E-2,2.3433832E-2,1.0137482E-2,-4.609957E-3,1.8503329E-2,7.1998173E-3,2.8056404E-2,3.3298295E-2,2.072945E-2,3.132363E-2,4.3832786E-2,2.5321352E-3,1.3311083E-2,1.0621827E-2,3.9010808E-2],"split_indices":[3,0,0,4,1,0,0,1,1,1,1,4,1,1,1,0,1,1,1,0,0,0,1,1,0,0,0,4,0,1,2,1,4,0,0,0,0,0,0,0,0,0,0,0,0,0,0,0,0,0,0],"split_type":[0,0,0,0,0,0,0,0,0,0,0,0,0,0,0,0,0,0,0,0,0,0,0,0,0,0,0,0,0,0,0,0,0,0,0,0,0,0,0,0,0,0,0,0,0,0,0,0,0,0,0],"sum_hessian":[8E2,3.91E2,4.09E2,1.85E2,2.06E2,2.68E2,1.41E2,1.6E2,2.5E1,4.4E1,1.62E2,3E0,1.57E2,2E1,5E0,6E0,3.8E1,1.42E2,2E1,2E0,1E0,3E0,1.54E2,9E0,1.1E1,4E0,1E0,1.1E1,2.7E1,9.5E1,4.7E1,1.1E1,9E0,2E0,1E0,2.3E1,1.31E2,4E0,5E0,5E0,6E0,6E0,2.1E1,4.8E1,4.7E1,3.6E1,1.1E1,5E0,6E0,2E0,7E0],"tree_param":{"num_deleted":"0","num_feature":"5","num_nodes":"51","size_leaf_vector":"1"}},{"base_weights":[5.385069E-1,5.077213E-1,6.278783E-1,4.6691728E-1,5.5376315E-1,2.692478E-2,3.2657485E-2,3.9905858E-1,4.9239916E-1,5.394212E-1,3.6006067E-2,5.543253E-1,3.575799E-1,5.099142E-1,4.1463485E-1,4.3328083E-1,5.633629E-1,8.370998E-2,6.0792035E-1,-5.6416903E-2,4.0639713E-1,1.9119604E-2,5.213694E-1,4.4630298E-1,1.4752178E-2,3.410284E-2,3.7942556E-1,5.787067E-1,4.2161444E-1,-4.0777083E-4,6.6860192E-3,2.1420233E-2,4.58587E-2,-1.2744556E-2,1.8351522E-3,1.8248038E-2,3.3836477E-2,2.382062E-2,2.8270876E-2,2.3243668E-2,1.19095985E-2,9.617558E-3,2.1714611E-2,2.6800489E-2,3.314783E-2,-1.2148037E-2,2.4653701E-2],"categories":[],"categories_nodes":[],"categories_segments":[],"categories_sizes":[],"default_left":[0,0,0,0,0,0,0,0,0,0,0,0,0,0,0,0,0,0,0,0,0,0,0,0,0,0,0,0,0,0,0,0,0,0,0,0,0,0,0,0,0,0,0,0,0,0,0],"id":41,"left_children":[1,3,5,7,9,-1,-1,11,13,15,-1,17,19,21,23,25,27,29,31,33,35,-1,37,39,-1,-1,41,43,45,-1,-1,-1,-1,-1,-1,-1,-1,-1,-1,-1,-1,-1,-1,-1,-1,-1,-1],"loss_changes":[1.8850555E0,8.7054443E-1,1.0230255E-1,3.6548615E-1,2.7244568E-1,0E0,0E0,4.0716934E-1,1.0456467E-1,4.1407013E-1,0E0,4.031186E-1,1.5791111E0,7.088089E-2,5.010891E-2,4.379015E-1,2.0839691E-1,1.48732215E-2,4.9533272E-1,1.7569248E-1,5.2593136E-1,0E0,6.1332703E-2,2.8399467E-2,0E0,0E0,3.7835026E-1,3.101349E-1,1.2595639E0,0E0,0E0,0E0,0E0,0E0,0E0,0E0,0E0,0E0,0E0,0E0,0E0,0E0,0E0,0E0,0E0,0E0,0E0],"parents":[2147483647,0,0,1,1,2,2,3,3,4,4,7,7,8,8,9,9,11,11,12,12,13,13,14,14,15,15,16,16,17,17,18,18,19,19,20,20,22,22,23,23,26,26,27,27,28,28],"right_children":[2,4,6,8,10,-1,-1,12,14,16,-1,18,20,22,24,26,28,30,32,34,36,-1,38,40,-1,-1,42,44,46,-1,-1,-1,-1,-1,-1,-1,-1,-1,-1,-1,-1,-1,-1,-1,-1,-1,-1],"split_conditions":[6E1,4.675E1,4.0244446E1,3E1,6.205128E1,2.692478E-2,3.2657485E-2,4.531531E-1,1.6142943E0,4.531531E-1,3.6006067E-2,3.581132E1,5.938639E-1,3.4954544E1,1E0,5.8055144E-2,1.7943032E0,3.4954544E1,1E0,3.6333332E1,2.793715E4,1.9119604E-2,8.592094E-1,2.793715E4,1.4752178E-2,3.410284E-2,1.3027526E-1,1.4155184E0,1.8001993E0,-4.0777083E-4,6.6860192E-3,2.1420233E-2,4.58587E-2,-1.2744556E-2,1.8351522E-3,1.8248038E-2,3.3836477E-2,2.382062E-2,2.8270876E-2,2.3243668E-2,1.19095985E-2,9.617558E-3,2.1714611E-2,2.6800489E-2,3.314783E-2,-1.2148037E-2,2.4653701E-2],"split_indices":[3,0,0,3,0,0,0,1,1,1,0,0,1,0,2,1,1,0,2,0,4,0,1,4,0,0,1,1,1,0,0,0,0,0,0,0,0,0,0,0,0,0,0,0,0,0,0],"split_type":[0,0,0,0,0,0,0,0,0,0,0,0,0,0,0,0,0,0,0,0,0,0,0,0,0,0,0,0,0,0,0,0,0,0,0,0,0,0,0,0,0,0,0,0,0,0,0],"sum_hessian":[8E2,6E2,2E2,3.24E2,2.76E2,4.9E1,1.51E2,9.3E1,2.31E2,2.58E2,1.8E1,1.7E1,7.6E1,1.84E2,4.7E1,5.1E1,2.07E2,2E0,1.5E1,8E0,6.8E1,1.8E1,1.66E2,3.5E1,1.2E1,7E0,4.4E1,1.84E2,2.3E1,1E0,1E0,1.1E1,4E0,2E0,6E0,6.1E1,7E0,8.8E1,7.8E1,3.1E1,4E0,1.1E1,3.3E1,1.27E2,5.7E1,2E0,2.1E1],"tree_param":{"num_deleted":"0","num_feature":"5","num_nodes":"47","size_leaf_vector":"1"}},{"base_weights":[5.121675E-1,4.8301703E-1,5.967809E-1,4.5675966E-1,5.485197E-1,2.6821211E-2,6.3305146E-1,3.9267015E-1,4.8278904E-1,5.273059E-1,3.430052E-2,2.5542775E-2,3.2837957E-2,3.9766556E-1,-6.4183134E-3,1.9785842E-2,4.9556917E-1,4.147329E-1,5.533655E-1,6.6000825E-1,3.8409904E-1,4.9793333E-1,1.0929871E-2,5.0961614E-1,1.5502827E-1,3.423582E-2,5.2447754E-1,6.2950416E-3,3.8102996E-2,1.4044481E-2,2.0959428E-2,1.895544E-2,2.5288034E-2,3.5293154E-2,1.9941557E-2,1.36161195E-2,-4.4496767E-3,2.8424004E-2,1.7526753E-2],"categories":[],"categories_nodes":[],"categories_segments":[],"categories_sizes":[],"default_left":[0,0,0,0,0,0,0,0,0,0,0,0,0,0,0,0,0,0,0,0,0,0,0,0,0,0,0,0,0,0,0,0,0,0,0,0,0,0,0],"id":42,"left_children":[1,3,5,7,9,-1,11,13,15,17,-1,-1,-1,19,-1,-1,21,23,25,27,29,31,-1,33,35,-1,37,-1,-1,-1,-1,-1,-1,-1,-1,-1,-1,-1,-1],"loss_changes":[1.687439E0,7.831421E-1,1.0043335E-1,5.3609467E-1,1.2534714E-1,0E0,1.2126923E-2,3.9201164E-1,1.4328766E-1,2.076149E-1,0E0,0E0,0E0,2.091713E-1,0E0,0E0,6.271362E-2,7.0952654E-1,8.862686E-2,1.7658877E-1,3.3857346E-1,4.914856E-2,0E0,2.185278E-1,3.104582E-1,0E0,5.737705E-1,0E0,0E0,0E0,0E0,0E0,0E0,0E0,0E0,0E0,0E0,0E0,0E0],"parents":[2147483647,0,0,1,1,2,2,3,3,4,4,6,6,7,7,8,8,9,9,13,13,16,16,17,17,18,18,19,19,20,20,21,21,23,23,24,24,26,26],"right_children":[2,4,6,8,10,-1,12,14,16,18,-1,-1,-1,20,-1,-1,22,24,26,28,30,32,-1,34,36,-1,38,-1,-1,-1,-1,-1,-1,-1,-1,-1,-1,-1,-1],"split_conditions":[6E1,5.0070175E1,4.4632652E1,3E1,6.205128E1,2.6821211E-2,3.4567162E-1,2.0150824E0,3.581132E1,3.568554E-1,3.430052E-2,2.5542775E-2,3.2837957E-2,2.1329648E4,-6.4183134E-3,1.9785842E-2,1.9913692E0,2.4230045E4,2.2890379E4,3.568554E-1,6.946523E-1,1.7877501E-1,1.0929871E-2,1.02791466E-1,2.6677805E-1,3.423582E-2,1.6210532E0,6.2950416E-3,3.8102996E-2,1.4044481E-2,2.0959428E-2,1.895544E-2,2.5288034E-2,3.5293154E-2,1.9941557E-2,1.36161195E-2,-4.4496767E-3,2.8424004E-2,1.7526753E-2],"split_indices":[3,0,0,3,0,0,1,1,0,1,0,0,0,4,0,0,1,4,4,1,1,1,0,1,1,0,1,0,0,0,0,0,0,0,0,0,0,0,0],"split_type":[0,0,0,0,0,0,0,0,0,0,0,0,0,0,0,0,0,0,0,0,0,0,0,0,0,0,0,0,0,0,0,0,0,0,0,0,0,0,0],"sum_hessian":[8E2,6E2,2E2,4.34E2,1.66E2,8.1E1,1.19E2,1.3E2,3.04E2,1.48E2,1.8E1,2.3E1,9.6E1,1.29E2,1E0,4.3E1,2.61E2,3.1E1,1.17E2,4E0,1.25E2,2.58E2,3E0,2.2E1,9E0,1.7E1,1E2,1E0,3E0,3.4E1,9.1E1,1.9E1,2.39E2,6E0,1.6E1,6E0,3E0,7.8E1,2.2E1],"tree_param":{"num_deleted":"0","num_feature":"5","num_nodes":"39","size_leaf_vector":"1"}},{"base_weights":[4.8707354E-1,4.3830404E-1,5.32514E-1,3.874674E-1,4.8186588E-1,5.0279427E-1,2.9927535E-2,3.6807844E-1,4.9262747E-1,4.4618845E-1,5.467543E-1,4.6768647E-1,2.6916612E-2,6.4865774E-1,3.5864556E-1,5.750725E-1,1.21965125E-1,4.5856935E-1,-2.6793617E-1,4.7564173E-1,7.362961E-1,2.3544837E-2,1.151903E-2,4.492454E-2,-2.5210322E-3,-1.793678E-1,3.7021592E-1,3.025365E-1,3.771316E-2,8.859757E-3,-3.8546238E-3,4.9600846E-1,3.710048E-1,5.6231967E-3,-2.571841E-2,5.3579956E-1,2.6978773E-1,7.893565E-3,7.625807E-1,-2.639604E-3,-1.3977374E-2,2.4035791E-2,1.736602E-2,2.056062E-2,8.0775255E-3,2.2215119E-2,3.5853762E-2,9.903307E-3,2.7140066E-2,3.1426128E-2,2.1568306E-2,-9.475126E-3,2.061381E-2,4.119091E-2,1.8645687E-2],"categories":[],"categories_nodes":[],"categories_segments":[],"categories_sizes":[],"default_left":[0,0,0,0,0,0,0,0,0,0,0,0,0,0,0,0,0,0,0,0,0,0,0,0,0,0,0,0,0,0,0,0,0,0,0,0,0,0,0,0,0,0,0,0,0,0,0,0,0,0,0,0,0,0,0],"id":43,"left_children":[1,3,5,7,9,11,-1,13,15,17,19,21,-1,23,25,27,29,31,33,35,37,-1,-1,-1,-1,39,41,43,-1,-1,-1,45,47,-1,-1,49,51,-1,53,-1,-1,-1,-1,-1,-1,-1,-1,-1,-1,-1,-1,-1,-1,-1,-1],"loss_changes":[1.5417023E0,6.8138885E-1,5.037155E-1,1.9791985E-1,2.352562E-1,1.08810425E-1,0E0,1.9347572E-1,7.244024E-1,1.3518391E0,5.7982445E-1,8.068085E-3,0E0,7.43914E-1,1.0499554E0,7.9736185E-1,7.962414E-2,2.6511002E-1,3.3907616E-1,5.1178646E-1,1.3807201E-1,0E0,0E0,0E0,0E0,3.596337E-2,2.2518158E-1,8.678621E-2,0E0,0E0,0E0,7.444382E-1,1.2294512E0,0E0,0E0,1.1621189E-1,9.9433696E-1,0E0,7.45821E-2,0E0,0E0,0E0,0E0,0E0,0E0,0E0,0E0,0E0,0E0,0E0,0E0,0E0,0E0,0E0,0E0],"parents":[2147483647,0,0,1,1,2,2,3,3,4,4,5,5,7,7,8,8,9,9,10,10,11,11,13,13,14,14,15,15,16,16,17,17,18,18,19,19,20,20,25,25,26,26,27,27,31,31,32,32,35,35,36,36,38,38],"right_children":[2,4,6,8,10,12,-1,14,16,18,20,22,-1,24,26,28,30,32,34,36,38,-1,-1,-1,-1,40,42,44,-1,-1,-1,46,48,-1,-1,50,52,-1,54,-1,-1,-1,-1,-1,-1,-1,-1,-1,-1,-1,-1,-1,-1,-1,-1],"split_conditions":[4.5E1,4.4632652E1,5.0070175E1,2.793715E4,1.3866323E0,6E1,2.9927535E-2,5.8055144E-2,1.6142943E0,1.3717164E0,1E0,1.9913692E0,2.6916612E-2,2.6010246E4,1.1658737E-1,6.9707036E-1,1.7528538E0,9.517398E-1,4.675E1,1.7943032E0,4.675E1,2.3544837E-2,1.151903E-2,4.492454E-2,-2.5210322E-3,3.5909092E1,4.258153E-1,3.551132E-1,3.771316E-2,8.859757E-3,-3.8546238E-3,7.5294703E-1,2.5709867E4,5.6231967E-3,-2.571841E-2,2.5709867E4,1.8284534E0,7.893565E-3,1.9579229E0,-2.639604E-3,-1.3977374E-2,2.4035791E-2,1.736602E-2,2.056062E-2,8.0775255E-3,2.2215119E-2,3.5853762E-2,9.903307E-3,2.7140066E-2,3.1426128E-2,2.1568306E-2,-9.475126E-3,2.061381E-2,4.119091E-2,1.8645687E-2],"split_indices":[3,0,0,4,1,3,0,1,1,1,2,1,0,4,1,1,1,1,0,1,0,0,0,0,0,0,1,1,0,0,0,1,4,0,0,4,1,0,1,0,0,0,0,0,0,0,0,0,0,0,0,0,0,0,0],"split_type":[0,0,0,0,0,0,0,0,0,0,0,0,0,0,0,0,0,0,0,0,0,0,0,0,0,0,0,0,0,0,0,0,0,0,0,0,0,0,0,0,0,0,0,0,0,0,0,0,0,0,0,0,0,0,0],"sum_hessian":[8E2,3.91E2,4.09E2,1.85E2,2.06E2,2.88E2,1.21E2,1.6E2,2.5E1,1.38E2,6.8E1,1.52E2,1.36E2,3E0,1.57E2,2E1,5E0,1.36E2,2E0,5.2E1,1.6E1,1.49E2,3E0,2E0,1E0,3E0,1.54E2,9E0,1.1E1,4E0,1E0,9.2E1,4.4E1,1E0,1E0,3.9E1,1.3E1,1E0,1.5E1,2E0,1E0,2.3E1,1.31E2,4E0,5E0,7.7E1,1.5E1,2.3E1,2.1E1,1.8E1,2.1E1,3E0,1E1,1.2E1,3E0],"tree_param":{"num_deleted":"0","num_feature":"5","num_nodes":"55","size_leaf_vector":"1"}},{"base_weights":[4.632659E-1,4.369575E-1,5.396245E-1,6.7477745E-1,4.2971846E-1,2.297232E-2,2.8122438E-2,7.9004717E-1,3.5098675E-1,6.730872E-2,4.378232E-1,1.146475E-2,4.1159645E-2,2.2042409E-2,-2.4580064E-3,-2.7821496E-1,1.4508955E-2,4.1386384E-1,5.1953727E-1,-5.1032353E-2,-1.895241E-2,3.5176286E-1,4.3787408E-1,3.3249606E-3,5.2262956E-1,-6.826973E-4,-3.1447292E-3,1.7829496E-2,-6.773205E-3,1.7043432E-2,2.2547726E-2,3.125787E-2,2.4733048E-2],"categories":[],"categories_nodes":[],"categories_segments":[],"categories_sizes":[],"default_left":[0,0,0,0,0,0,0,0,0,0,0,0,0,0,0,0,0,0,0,0,0,0,0,0,0,0,0,0,0,0,0,0,0],"id":44,"left_children":[1,3,5,7,9,-1,-1,11,13,15,17,-1,-1,-1,-1,19,-1,21,23,25,-1,27,29,-1,31,-1,-1,-1,-1,-1,-1,-1,-1],"loss_changes":[1.3733063E0,7.447052E-1,1.0941696E-1,3.198762E-1,1.6917496E0,0E0,0E0,1.569748E-2,2.3741883E-1,1.15883E0,9.0680695E-1,0E0,0E0,0E0,0E0,1.1810163E-1,0E0,5.139694E-1,1.417656E-1,4.7141407E-4,0E0,3.5404968E-1,2.5105667E-1,0E0,4.920578E-2,0E0,0E0,0E0,0E0,0E0,0E0,0E0,0E0],"parents":[2147483647,0,0,1,1,2,2,3,3,4,4,7,7,8,8,9,9,10,10,15,15,17,17,18,18,19,19,21,21,22,22,24,24],"right_children":[2,4,6,8,10,-1,-1,12,14,16,18,-1,-1,-1,-1,20,-1,22,24,26,-1,28,30,-1,32,-1,-1,-1,-1,-1,-1,-1,-1],"split_conditions":[6E1,6.775728E-2,4.0244446E1,2.6010246E4,1.1658737E-1,2.297232E-2,2.8122438E-2,2.16274E4,5.570375E-2,3E1,5.132787E1,1.146475E-2,4.1159645E-2,2.2042409E-2,-2.4580064E-3,3.5909092E1,1.4508955E-2,3E1,1.1917601E-1,3.4954544E1,-1.895241E-2,2.0964124E0,3.581132E1,3.3249606E-3,2.2890379E4,-6.826973E-4,-3.1447292E-3,1.7829496E-2,-6.773205E-3,1.7043432E-2,2.2547726E-2,3.125787E-2,2.4733048E-2],"split_indices":[3,1,0,4,1,0,0,4,1,3,0,0,0,0,0,0,0,3,1,0,0,1,0,0,4,0,0,0,0,0,0,0,0],"split_type":[0,0,0,0,0,0,0,0,0,0,0,0,0,0,0,0,0,0,0,0,0,0,0,0,0,0,0,0,0,0,0,0,0],"sum_hessian":[8E2,6E2,2E2,1.5E1,5.85E2,4.9E1,1.51E2,1E1,5E0,1.3E1,5.72E2,1E0,9E0,4E0,1E0,5E0,8E0,4.47E2,1.25E2,2E0,3E0,1.29E2,3.18E2,1E0,1.24E2,1E0,1E0,1.28E2,1E0,4.1E1,2.77E2,2.2E1,1.02E2],"tree_param":{"num_deleted":"0","num_feature":"5","num_nodes":"33","size_leaf_vector":"1"}},{"base_weights":[4.4038352E-1,3.963482E-1,4.8141146E-1,3.4948802E-1,4.3653977E-1,4.5412934E-1,2.7104637E-2,3.3094427E-1,4.5087484E-1,4.0223545E-1,4.993189E-1,4.2303795E-1,2.427685E-2,6.0686046E-1,3.2186446E-1,5.300267E-1,9.869758E-2,4.141387E-1,-2.754252E-1,4.317036E-1,6.8074787E-1,4.4280404E-1,3.6575922E-1,4.2055067E-2,-2.396554E-3,-1.6885874E-1,3.3245173E-1,2.7186787E-1,3.5049506E-2,7.603453E-3,-4.2039966E-3,4.4972533E-1,3.313899E-1,5.036884E-3,-2.5693774E-2,4.8824733E-1,2.3931405E-1,7.1325325E-3,7.054633E-1,4.4755486E-1,1.0310334E-2,1.5803795E-2,2.1449897E-2,-2.4878269E-3,-1.3154133E-2,2.1941282E-2,1.5529622E-2,1.8930657E-2,6.880108E-3,2.0027984E-2,3.3065006E-2,8.374016E-3,2.475686E-2,2.8872216E-2,1.9451028E-2,-9.847387E-3,1.8809943E-2,3.820161E-2,1.6937422E-2,2.2999069E-2,1.5594095E-2],"categories":[],"categories_nodes":[],"categories_segments":[],"categories_sizes":[],"default_left":[0,0,0,0,0,0,0,0,0,0,0,0,0,0,0,0,0,0,0,0,0,0,0,0,0,0,0,0,0,0,0,0,0,0,0,0,0,0,0,0,0,0,0,0,0,0,0,0,0,0,0,0,0,0,0,0,0,0,0,0,0],"id":45,"left_children":[1,3,5,7,9,11,-1,13,15,17,19,21,-1,23,25,27,29,31,33,35,37,39,41,-1,-1,43,45,47,-1,-1,-1,49,51,-1,-1,53,55,-1,57,59,-1,-1,-1,-1,-1,-1,-1,-1,-1,-1,-1,-1,-1,-1,-1,-1,-1,-1,-1,-1,-1],"loss_changes":[1.2563324E0,5.8572006E-1,4.3257904E-1,2.0048523E-1,2.4495316E-1,7.680893E-2,0E0,2.0801926E-1,6.7245007E-1,1.2352905E0,5.525665E-1,1.1262894E-2,0E0,6.5383077E-1,8.7701416E-1,7.362728E-1,7.13166E-2,2.5439644E-1,3.2085502E-1,4.5971203E-1,1.2545204E-1,3.0229568E-2,5.7902336E-3,0E0,0E0,3.179902E-2,2.2411919E-1,9.122437E-2,0E0,0E0,0E0,7.0251656E-1,1.1248627E0,0E0,0E0,1.2939167E-1,9.101381E-1,0E0,8.483505E-2,3.524971E-2,0E0,0E0,0E0,0E0,0E0,0E0,0E0,0E0,0E0,0E0,0E0,0E0,0E0,0E0,0E0,0E0,0E0,0E0,0E0,0E0,0E0],"parents":[2147483647,0,0,1,1,2,2,3,3,4,4,5,5,7,7,8,8,9,9,10,10,11,11,13,13,14,14,15,15,16,16,17,17,18,18,19,19,20,20,21,21,22,22,25,25,26,26,27,27,31,31,32,32,35,35,36,36,38,38,39,39],"right_children":[2,4,6,8,10,12,-1,14,16,18,20,22,-1,24,26,28,30,32,34,36,38,40,42,-1,-1,44,46,48,-1,-1,-1,50,52,-1,-1,54,56,-1,58,60,-1,-1,-1,-1,-1,-1,-1,-1,-1,-1,-1,-1,-1,-1,-1,-1,-1,-1,-1,-1,-1],"split_conditions":[4.5E1,4.4632652E1,5.0070175E1,2.793715E4,1.3866323E0,6E1,2.7104637E-2,5.8055144E-2,1.6142943E0,1.3717164E0,1E0,1E0,2.427685E-2,2.6010246E4,1.1658737E-1,6.9707036E-1,1.7528538E0,9.517398E-1,4.675E1,1.7943032E0,4.675E1,1.8966181E0,2.629075E4,4.2055067E-2,-2.396554E-3,3.5909092E1,4.258153E-1,3.551132E-1,3.5049506E-2,7.603453E-3,-4.2039966E-3,7.5294703E-1,2.5709867E4,5.036884E-3,-2.5693774E-2,2.5709867E4,1.8284534E0,7.1325325E-3,1.9579229E0,2.763563E4,1.0310334E-2,1.5803795E-2,2.1449897E-2,-2.4878269E-3,-1.3154133E-2,2.1941282E-2,1.5529622E-2,1.8930657E-2,6.880108E-3,2.0027984E-2,3.3065006E-2,8.374016E-3,2.475686E-2,2.8872216E-2,1.9451028E-2,-9.847387E-3,1.8809943E-2,3.820161E-2,1.6937422E-2,2.2999069E-2,1.5594095E-2],"split_indices":[3,0,0,4,1,3,0,1,1,1,2,2,0,4,1,1,1,1,0,1,0,1,4,0,0,0,1,1,0,0,0,1,4,0,0,4,1,0,1,4,0,0,0,0,0,0,0,0,0,0,0,0,0,0,0,0,0,0,0,0,0],"split_type":[0,0,0,0,0,0,0,0,0,0,0,0,0,0,0,0,0,0,0,0,0,0,0,0,0,0,0,0,0,0,0,0,0,0,0,0,0,0,0,0,0,0,0,0,0,0,0,0,0,0,0,0,0,0,0,0,0,0,0,0,0],"sum_hessian":[8E2,3.91E2,4.09E2,1.85E2,2.06E2,2.88E2,1.21E2,1.6E2,2.5E1,1.38E2,6.8E1,1.52E2,1.36E2,3E0,1.57E2,2E1,5E0,1.36E2,2E0,5.2E1,1.6E1,1.08E2,4.4E1,2E0,1E0,3E0,1.54E2,9E0,1.1E1,4E0,1E0,9.2E1,4.4E1,1E0,1E0,3.9E1,1.3E1,1E0,1.5E1,1.05E2,3E0,2.8E1,1.6E1,2E0,1E0,2.3E1,1.31E2,4E0,5E0,7.7E1,1.5E1,2.3E1,2.1E1,1.8E1,2.1E1,3E0,1E1,1.2E1,3E0,9.4E1,1.1E1],"tree_param":{"num_deleted":"0","num_feature":"5","num_nodes":"61","size_leaf_vector":"1"}},{"base_weights":[4.1892418E-1,3.7732387E-1,4.5767638E-1,3.326897E-1,4.1560712E-1,4.3180507E-1,2.5760515E-2,3.6147228E-1,2.7742764E-1,3.2841456E-1,4.3712893E-1,4.024492E-1,2.3071876E-2,3.0368048E-1,4.6401083E-1,-1.2957089E-2,3.006797E-1,2.824527E-2,2.775466E-1,3.4739394E-2,4.2457777E-1,4.211125E-1,3.4829915E-1,3.9356485E-1,2.2323689E-1,5.1534426E-1,1.4105645E-1,4.8857722E-3,-1.4157995E-2,1.09746315E-1,3.2645646E-1,8.188294E-2,3.5149008E-1,4.0193933E-1,5.462546E-1,4.2554122E-1,9.923694E-3,1.5040852E-2,2.0440495E-2,8.196674E-3,2.2665953E-2,1.8918047E-3,1.4988254E-2,1.7919757E-3,2.6419664E-2,-2.9942475E-3,3.366762E-2,-8.031123E-3,1.3585056E-2,3.1312305E-2,1.5166384E-2,-7.6914155E-3,1.361118E-2,3.2320216E-2,1.2083846E-2,1.7072983E-2,2.3805402E-2,2.8428543E-2,1.07697295E-2,2.1861222E-2,1.487937E-2],"categories":[],"categories_nodes":[],"categories_segments":[],"categories_sizes":[],"default_left":[0,0,0,0,0,0,0,0,0,0,0,0,0,0,0,0,0,0,0,0,0,0,0,0,0,0,0,0,0,0,0,0,0,0,0,0,0,0,0,0,0,0,0,0,0,0,0,0,0,0,0,0,0,0,0,0,0,0,0,0,0],"id":46,"left_children":[1,3,5,7,9,11,-1,13,15,17,19,21,-1,23,25,27,29,-1,31,-1,33,35,37,39,41,43,45,-1,-1,47,49,51,53,55,57,59,-1,-1,-1,-1,-1,-1,-1,-1,-1,-1,-1,-1,-1,-1,-1,-1,-1,-1,-1,-1,-1,-1,-1,-1,-1],"loss_changes":[1.1186066E0,5.315552E-1,3.8780212E-1,1.9556618E-1,2.448883E-1,6.56929E-2,0E0,5.6427E-1,4.6303463E-1,3.8455343E-1,2.3213768E-1,7.951736E-3,0E0,4.8336077E-1,6.070204E-1,2.0709327E-1,2.742362E-1,0E0,5.354731E-1,0E0,2.156601E-1,2.3015976E-2,6.315708E-3,4.196577E-1,6.129472E-1,2.0005894E-1,7.890457E-1,0E0,0E0,4.3772903E-1,1.9139957E-1,5.8026093E-1,7.5057197E-1,4.5196724E-1,3.997135E-2,2.8347015E-2,0E0,0E0,0E0,0E0,0E0,0E0,0E0,0E0,0E0,0E0,0E0,0E0,0E0,0E0,0E0,0E0,0E0,0E0,0E0,0E0,0E0,0E0,0E0,0E0,0E0],"parents":[2147483647,0,0,1,1,2,2,3,3,4,4,5,5,7,7,8,8,9,9,10,10,11,11,13,13,14,14,15,15,16,16,18,18,20,20,21,21,22,22,23,23,24,24,25,25,26,26,29,29,30,30,31,31,32,32,33,33,34,34,35,35],"right_children":[2,4,6,8,10,12,-1,14,16,18,20,22,-1,24,26,28,30,-1,32,-1,34,36,38,40,42,44,46,-1,-1,48,50,52,54,56,58,60,-1,-1,-1,-1,-1,-1,-1,-1,-1,-1,-1,-1,-1,-1,-1,-1,-1,-1,-1,-1,-1,-1,-1,-1,-1],"split_conditions":[4.5E1,4.4632652E1,5.0070175E1,1.3071798E0,4.531531E-1,6E1,2.5760515E-2,9.517398E-1,1.3468274E0,6.775728E-2,4.9102667E-1,1E0,2.3071876E-2,4.531531E-1,4.2489796E1,3.581132E1,3.4954544E1,2.824527E-2,1.6062157E-1,3.4739394E-2,5.425E1,1.8966181E0,2.629075E4,3.581132E1,5.938639E-1,2.1329648E4,1.2850726E0,4.8857722E-3,-1.4157995E-2,1.6840698E0,1.3527752E0,2.3375006E4,2.3375006E4,1.3866323E0,1.7513418E0,2.763563E4,9.923694E-3,1.5040852E-2,2.0440495E-2,8.196674E-3,2.2665953E-2,1.8918047E-3,1.4988254E-2,1.7919757E-3,2.6419664E-2,-2.9942475E-3,3.366762E-2,-8.031123E-3,1.3585056E-2,3.1312305E-2,1.5166384E-2,-7.6914155E-3,1.361118E-2,3.2320216E-2,1.2083846E-2,1.7072983E-2,2.3805402E-2,2.8428543E-2,1.07697295E-2,2.1861222E-2,1.487937E-2],"split_indices":[3,0,0,1,1,3,0,1,1,1,1,2,0,1,0,0,0,0,1,0,0,1,4,0,1,4,1,0,0,1,1,4,4,1,1,4,0,0,0,0,0,0,0,0,0,0,0,0,0,0,0,0,0,0,0,0,0,0,0,0,0],"split_type":[0,0,0,0,0,0,0,0,0,0,0,0,0,0,0,0,0,0,0,0,0,0,0,0,0,0,0,0,0,0,0,0,0,0,0,0,0,0,0,0,0,0,0,0,0,0,0,0,0,0,0,0,0,0,0,0,0,0,0,0,0],"sum_hessian":[8E2,3.91E2,4.09E2,1.85E2,2.06E2,2.88E2,1.21E2,1.18E2,6.7E1,4.4E1,1.62E2,1.52E2,1.36E2,7.8E1,4E1,5E0,6.2E1,6E0,3.8E1,5E0,1.57E2,1.08E2,4.4E1,3.5E1,4.3E1,3.4E1,6E0,4E0,1E0,8E0,5.4E1,1.1E1,2.7E1,1.36E2,2.1E1,1.05E2,3E0,2.8E1,1.6E1,8E0,2.7E1,1.3E1,3E1,1E0,3.3E1,5E0,1E0,3E0,5E0,2E0,5.2E1,5E0,6E0,6E0,2.1E1,7.8E1,5.8E1,1.9E1,2E0,9.4E1,1.1E1],"tree_param":{"num_deleted":"0","num_feature":"5","num_nodes":"61","size_leaf_vector":"1"}},{"base_weights":[3.9856946E-1,3.7601414E-1,4.6402806E-1,6.006403E-1,3.6923936E-1,2.0593444E-2,4.9580324E-1,7.076188E-1,3.044063E-1,4.0157106E-2,3.7663537E-1,3.8505796E-1,2.5904639E-2,9.971302E-3,3.6924776E-2,1.9425694E-2,-2.903289E-3,-2.7811286E-1,1.23937605E-2,3.5566705E-1,4.482002E-1,4.0098068E-1,6.9969394E-3,-5.838554E-2,-1.8669007E-2,3.00021E-1,3.7722915E-1,1.9202102E-3,4.5117134E-1,1.05129E-2,4.316825E-1,-8.083528E-4,-3.5705627E-3,1.5236241E-2,-7.66926E-3,1.4526906E-2,1.9448472E-2,2.7432272E-2,2.125125E-2,2.2828477E-2,7.7528744E-3],"categories":[],"categories_nodes":[],"categories_segments":[],"categories_sizes":[],"default_left":[0,0,0,0,0,0,0,0,0,0,0,0,0,0,0,0,0,0,0,0,0,0,0,0,0,0,0,0,0,0,0,0,0,0,0,0,0,0,0,0,0],"id":47,"left_children":[1,3,5,7,9,-1,11,13,15,17,19,21,-1,-1,-1,-1,-1,23,-1,25,27,29,-1,31,-1,33,35,-1,37,-1,39,-1,-1,-1,-1,-1,-1,-1,-1,-1,-1],"loss_changes":[1.0081482E0,6.928177E-1,1.2892532E-1,2.9164743E-1,1.4111328E0,0E0,9.6717834E-2,2.5329113E-2,2.0547915E-1,9.9448323E-1,7.004318E-1,3.755808E-2,0E0,0E0,0E0,0E0,0E0,1.0379699E-1,0E0,4.2435455E-1,1.3608742E-1,3.805709E-2,0E0,4.9526803E-4,0E0,3.239956E-1,2.1165848E-1,0E0,8.5386276E-2,0E0,5.312419E-2,0E0,0E0,0E0,0E0,0E0,0E0,0E0,0E0,0E0,0E0],"parents":[2147483647,0,0,1,1,2,2,3,3,4,4,6,6,7,7,8,8,9,9,10,10,11,11,17,17,19,19,20,20,21,21,23,23,25,25,26,26,28,28,30,30],"right_children":[2,4,6,8,10,-1,12,14,16,18,20,22,-1,-1,-1,-1,-1,24,-1,26,28,30,-1,32,-1,34,36,-1,38,-1,40,-1,-1,-1,-1,-1,-1,-1,-1,-1,-1],"split_conditions":[6E1,6.775728E-2,4.4632652E1,2.6010246E4,1.1658737E-1,2.0593444E-2,3.4567162E-1,2.16274E4,5.570375E-2,3E1,5.132787E1,3.0703723E-1,2.5904639E-2,9.971302E-3,3.6924776E-2,1.9425694E-2,-2.903289E-3,3.5909092E1,1.23937605E-2,3E1,1.1917601E-1,2.2890379E4,6.9969394E-3,3.4954544E1,-1.8669007E-2,2.0964124E0,3.581132E1,1.9202102E-3,2.2890379E4,1.05129E-2,6.205128E1,-8.083528E-4,-3.5705627E-3,1.5236241E-2,-7.66926E-3,1.4526906E-2,1.9448472E-2,2.7432272E-2,2.125125E-2,2.2828477E-2,7.7528744E-3],"split_indices":[3,1,0,4,1,0,1,4,1,3,0,1,0,0,0,0,0,0,0,3,1,4,0,0,0,1,0,0,4,0,0,0,0,0,0,0,0,0,0,0,0],"split_type":[0,0,0,0,0,0,0,0,0,0,0,0,0,0,0,0,0,0,0,0,0,0,0,0,0,0,0,0,0,0,0,0,0,0,0,0,0,0,0,0,0],"sum_hessian":[8E2,6E2,2E2,1.5E1,5.85E2,8.1E1,1.19E2,1E1,5E0,1.3E1,5.72E2,2.3E1,9.6E1,1E0,9E0,4E0,1E0,5E0,8E0,4.47E2,1.25E2,2.1E1,2E0,2E0,3E0,1.29E2,3.18E2,1E0,1.24E2,4E0,1.7E1,1E0,1E0,1.28E2,1E0,4.1E1,2.77E2,2.2E1,1.02E2,1.5E1,2E0],"tree_param":{"num_deleted":"0","num_feature":"5","num_nodes":"41","size_leaf_vector":"1"}},{"base_weights":[3.7894002E-1,3.5745457E-1,4.4129723E-1,5.745719E-1,3.5091648E-1,1.8517522E-2,4.6173173E-1,6.7650104E-1,2.9193974E-1,3.7388243E-2,3.5796443E-1,3.554787E-1,4.7513765E-1,9.722018E-3,3.5263155E-2,1.8648667E-2,-2.8307082E-3,-2.680486E-1,1.1842928E-2,3.3797643E-1,4.2619187E-1,3.9242628E-1,1.1276131E-2,2.6141152E-2,4.3312183E-1,-5.69259E-2,-1.7968925E-2,2.8507826E-1,3.584742E-1,1.8722046E-3,4.2900229E-1,2.0910492E-2,7.4944445E-3,2.2503277E-2,1.4604232E-2,-7.8814384E-4,-3.4812987E-3,2.8064435E-2,1.359275E-2,1.3817857E-2,1.8479545E-2,2.6120296E-2,2.0199006E-2],"categories":[],"categories_nodes":[],"categories_segments":[],"categories_sizes":[],"default_left":[0,0,0,0,0,0,0,0,0,0,0,0,0,0,0,0,0,0,0,0,0,0,0,0,0,0,0,0,0,0,0,0,0,0,0,0,0,0,0,0,0,0,0],"id":48,"left_children":[1,3,5,7,9,-1,11,13,15,17,19,21,23,-1,-1,-1,-1,25,-1,27,29,31,-1,-1,33,35,-1,37,39,-1,41,-1,-1,-1,-1,-1,-1,-1,-1,-1,-1,-1,-1],"loss_changes":[9.154129E-1,6.515198E-1,1.20399475E-1,2.6343822E-1,1.2815247E0,0E0,4.7611237E-2,1.538372E-2,1.9058311E-1,9.1644776E-1,6.3736725E-1,1.2331724E-2,3.8021088E-2,0E0,0E0,0E0,0E0,9.5232934E-2,0E0,3.835678E-1,1.2159538E-1,3.1116962E-2,0E0,0E0,5.0159454E-2,4.708143E-4,0E0,3.2222366E-1,1.8906784E-1,0E0,8.110428E-2,0E0,0E0,0E0,0E0,0E0,0E0,0E0,0E0,0E0,0E0,0E0,0E0],"parents":[2147483647,0,0,1,1,2,2,3,3,4,4,6,6,7,7,8,8,9,9,10,10,11,11,12,12,17,17,19,19,20,20,21,21,24,24,25,25,27,27,28,28,30,30],"right_children":[2,4,6,8,10,-1,12,14,16,18,20,22,24,-1,-1,-1,-1,26,-1,28,30,32,-1,-1,34,36,-1,38,40,-1,42,-1,-1,-1,-1,-1,-1,-1,-1,-1,-1,-1,-1],"split_conditions":[6E1,6.775728E-2,4.0244446E1,2.6010246E4,1.1658737E-1,1.8517522E-2,2.3696432E-1,2.16274E4,5.570375E-2,3E1,5.132787E1,1.8387932E-1,2.5788127E4,9.722018E-3,3.5263155E-2,1.8648667E-2,-2.8307082E-3,3.5909092E1,1.1842928E-2,3E1,1.1917601E-1,6.205128E1,1.1276131E-2,2.6141152E-2,1.628328E0,3.4954544E1,-1.7968925E-2,2.1329648E4,3.581132E1,1.8722046E-3,2.2890379E4,2.0910492E-2,7.4944445E-3,2.2503277E-2,1.4604232E-2,-7.8814384E-4,-3.4812987E-3,2.8064435E-2,1.359275E-2,1.3817857E-2,1.8479545E-2,2.6120296E-2,2.0199006E-2],"split_indices":[3,1,0,4,1,0,1,4,1,3,0,1,4,0,0,0,0,0,0,3,1,0,0,0,1,0,0,4,0,0,4,0,0,0,0,0,0,0,0,0,0,0,0],"split_type":[0,0,0,0,0,0,0,0,0,0,0,0,0,0,0,0,0,0,0,0,0,0,0,0,0,0,0,0,0,0,0,0,0,0,0,0,0,0,0,0,0,0,0],"sum_hessian":[8E2,6E2,2E2,1.5E1,5.85E2,4.9E1,1.51E2,1E1,5E0,1.3E1,5.72E2,2E1,1.31E2,1E0,9E0,4E0,1E0,5E0,8E0,4.47E2,1.25E2,1.4E1,6E0,5.6E1,7.5E1,2E0,3E0,1.29E2,3.18E2,1E0,1.24E2,1.2E1,2E0,6.5E1,1E1,1E0,1E0,4E0,1.25E2,4.1E1,2.77E2,2.2E1,1.02E2],"tree_param":{"num_deleted":"0","num_feature":"5","num_nodes":"43","size_leaf_vector":"1"}},{"base_weights":[3.6036003E-1,3.2433555E-1,3.9392403E-1,5.543322E-1,3.1748357E-1,3.7115976E-1,2.2231014E-2,3.1409558E-2,-2.7599398E-3,1.9269934E-2,3.287457E-1,3.4672758E-1,1.9786807E-2,-8.385687E-2,1.8793629E-1,2.953706E-1,3.8375324E-1,1.7769573E-2,2.5651094E-1,-2.1087402E-1,2.828078E-1,1.190714E-3,1.0799891E-2,2.2992726E-1,3.191806E-1,4.335691E-1,3.3995187E-1,3.0475056E-1,1.4406142E-1,3.6638607E-3,-1.5890198E-2,-7.6844153E-4,2.1979026E-2,1.5812244E-2,5.0743744E-3,2.027575E-2,1.3396839E-2,1.8660694E-2,2.8213924E-2,4.546046E-3,2.0449765E-2,1.7818749E-2,6.2657045E-3,2.2011204E-3,8.763627E-3],"categories":[],"categories_nodes":[],"categories_segments":[],"categories_sizes":[],"default_left":[0,0,0,0,0,0,0,0,0,0,0,0,0,0,0,0,0,0,0,0,0,0,0,0,0,0,0,0,0,0,0,0,0,0,0,0,0,0,0,0,0,0,0,0,0],"id":49,"left_children":[1,3,5,7,9,11,-1,-1,-1,13,15,17,-1,19,21,23,25,-1,27,29,31,-1,-1,33,35,37,39,41,43,-1,-1,-1,-1,-1,-1,-1,-1,-1,-1,-1,-1,-1,-1,-1,-1],"loss_changes":[8.407364E-1,4.4177246E-1,3.0814362E-1,4.848678E-1,1.2799759E0,3.6319733E-2,0E0,0E0,0E0,2.7667007E-1,5.640907E-1,2.8427124E-2,0E0,5.253638E-1,2.2489294E-2,2.9123306E-1,1.4935875E-1,0E0,4.8313975E-2,2.66362E-1,1.4699373E-1,0E0,0E0,6.996217E-1,6.390209E-1,2.6274395E-1,1.2867489E0,5.7237625E-2,1.4140382E-2,0E0,0E0,0E0,0E0,0E0,0E0,0E0,0E0,0E0,0E0,0E0,0E0,0E0,0E0,0E0,0E0],"parents":[2147483647,0,0,1,1,2,2,3,3,4,4,5,5,9,9,10,10,11,11,13,13,14,14,15,15,16,16,18,18,19,19,20,20,23,23,24,24,25,25,26,26,27,27,28,28],"right_children":[2,4,6,8,10,12,-1,-1,-1,14,16,18,-1,20,22,24,26,-1,28,30,32,-1,-1,34,36,38,40,42,44,-1,-1,-1,-1,-1,-1,-1,-1,-1,-1,-1,-1,-1,-1,-1,-1],"split_conditions":[4.5E1,6.775728E-2,5.0070175E1,2.6010246E4,1.3138932E-1,6E1,2.2231014E-2,3.1409558E-2,-2.7599398E-3,3E1,4.693617E1,4.693617E1,1.9786807E-2,1E0,3.5909092E1,7.689916E-1,8.934182E-1,1.7769573E-2,1.0947071E0,3.5909092E1,3.4954544E1,1.190714E-3,1.0799891E-2,4.6289638E-1,1.2221818E0,6.833675E-1,1.1932144E0,1E0,1.3717164E0,3.6638607E-3,-1.5890198E-2,-7.6844153E-4,2.1979026E-2,1.5812244E-2,5.0743744E-3,2.027575E-2,1.3396839E-2,1.8660694E-2,2.8213924E-2,4.546046E-3,2.0449765E-2,1.7818749E-2,6.2657045E-3,2.2011204E-3,8.763627E-3],"split_indices":[3,1,0,4,1,3,0,0,0,3,0,0,0,2,0,1,1,0,1,0,0,0,0,1,1,1,1,2,1,0,0,0,0,0,0,0,0,0,0,0,0,0,0,0,0],"split_type":[0,0,0,0,0,0,0,0,0,0,0,0,0,0,0,0,0,0,0,0,0,0,0,0,0,0,0,0,0,0,0,0,0,0,0,0,0,0,0,0,0,0,0,0,0],"sum_hessian":[8E2,3.91E2,4.09E2,9E0,3.82E2,2.88E2,1.21E2,8E0,1E0,1.4E1,3.68E2,1.52E2,1.36E2,9E0,5E0,2.33E2,1.35E2,1.36E2,1.6E1,7E0,2E0,1E0,4E0,6.5E1,1.68E2,5.9E1,7.6E1,1E1,6E0,2E0,5E0,1E0,1E0,3.8E1,2.7E1,6E1,1.08E2,4.3E1,1.6E1,1.7E1,5.9E1,7E0,3E0,2E0,4E0],"tree_param":{"num_deleted":"0","num_feature":"5","num_nodes":"45","size_leaf_vector":"1"}},{"base_weights":[3.4268022E-1,3.2315058E-1,3.993699E-1,5.2689004E-1,3.1703627E-1,1.664061E-2,4.1863644E-1,6.198804E-1,2.6859272E-1,3.0629987E-2,3.234807E-1,3.1981856E-1,4.31186E-1,8.69373E-3,3.2354675E-2,3.438388E-1,-2.6909413E-3,-2.5089008E-1,2.1490669E-1,3.054391E-1,3.850612E-1,3.5525322E-1,9.909938E-3,2.3825005E-2,3.9152688E-1,2.1030463E-2,7.6227705E-3,-5.6467857E-2,-1.6699212E-2,1.13264825E-2,3.0480786E-3,2.567555E-1,3.2432133E-1,2.8226838E-1,4.0409172E-1,1.899455E-2,6.5035927E-3,2.0378215E-2,1.2985446E-2,-7.4923097E-4,-3.4858584E-3,2.6264733E-2,1.2203072E-2,1.673282E-2,1.2193401E-2,1.9284023E-2,2.008032E-3,2.3655977E-2,1.834208E-2],"categories":[],"categories_nodes":[],"categories_segments":[],"categories_sizes":[],"default_left":[0,0,0,0,0,0,0,0,0,0,0,0,0,0,0,0,0,0,0,0,0,0,0,0,0,0,0,0,0,0,0,0,0,0,0,0,0,0,0,0,0,0,0,0,0,0,0,0,0],"id":50,"left_children":[1,3,5,7,9,-1,11,13,15,17,19,21,23,-1,-1,25,-1,27,29,31,33,35,-1,-1,37,-1,-1,39,-1,-1,-1,41,43,45,47,-1,-1,-1,-1,-1,-1,-1,-1,-1,-1,-1,-1,-1,-1],"loss_changes":[7.577591E-1,5.8163834E-1,1.1842346E-1,2.1781063E-1,1.071682E0,0E0,5.0598145E-2,2.099657E-2,1.6406623E-1,7.802043E-1,5.189972E-1,2.0089865E-2,5.0655365E-2,0E0,0E0,9.338856E-3,0E0,7.807273E-2,2.2940636E-3,3.2855225E-1,1.3241959E-1,3.3806443E-2,0E0,0E0,5.48172E-2,0E0,0E0,6.0418714E-4,0E0,0E0,0E0,3.1494713E-1,1.836319E-1,5.6035876E-1,9.3854904E-2,0E0,0E0,0E0,0E0,0E0,0E0,0E0,0E0,0E0,0E0,0E0,0E0,0E0,0E0],"parents":[2147483647,0,0,1,1,2,2,3,3,4,4,6,6,7,7,8,8,9,9,10,10,11,11,12,12,15,15,17,17,18,18,19,19,20,20,21,21,24,24,27,27,31,31,32,32,33,33,34,34],"right_children":[2,4,6,8,10,-1,12,14,16,18,20,22,24,-1,-1,26,-1,28,30,32,34,36,-1,-1,38,-1,-1,40,-1,-1,-1,42,44,46,48,-1,-1,-1,-1,-1,-1,-1,-1,-1,-1,-1,-1,-1,-1],"split_conditions":[6E1,6.775728E-2,4.0244446E1,2.6010246E4,1.1658737E-1,1.664061E-2,2.3696432E-1,2.16274E4,5.570375E-2,3E1,5.132787E1,1.8387932E-1,2.5788127E4,8.69373E-3,3.2354675E-2,1E0,-2.6909413E-3,3.5909092E1,5.3846153E1,3E1,3.568554E-1,6.205128E1,9.909938E-3,2.3825005E-2,1.628328E0,2.1030463E-2,7.6227705E-3,3.4954544E1,-1.6699212E-2,1.13264825E-2,3.0480786E-3,2.1329648E4,1.7298918E0,2.5788127E4,9.517398E-1,1.899455E-2,6.5035927E-3,2.0378215E-2,1.2985446E-2,-7.4923097E-4,-3.4858584E-3,2.6264733E-2,1.2203072E-2,1.673282E-2,1.2193401E-2,1.9284023E-2,2.008032E-3,2.3655977E-2,1.834208E-2],"split_indices":[3,1,0,4,1,0,1,4,1,3,0,1,4,0,0,2,0,0,0,3,1,0,0,0,1,0,0,0,0,0,0,4,1,4,1,0,0,0,0,0,0,0,0,0,0,0,0,0,0],"split_type":[0,0,0,0,0,0,0,0,0,0,0,0,0,0,0,0,0,0,0,0,0,0,0,0,0,0,0,0,0,0,0,0,0,0,0,0,0,0,0,0,0,0,0,0,0,0,0,0,0],"sum_hessian":[8E2,6E2,2E2,1.5E1,5.85E2,4.9E1,1.51E2,1E1,5E0,1.3E1,5.72E2,2E1,1.31E2,1E0,9E0,4E0,1E0,5E0,8E0,4.47E2,1.25E2,1.4E1,6E0,5.6E1,7.5E1,2E0,2E0,2E0,3E0,7E0,1E0,1.29E2,3.18E2,2.2E1,1.03E2,1.2E1,2E0,6.5E1,1E1,1E0,1E0,4E0,1.25E2,2.79E2,3.9E1,1.5E1,7E0,3.2E1,7.1E1],"tree_param":{"num_deleted":"0","num_feature":"5","num_nodes":"49","size_leaf_vector":"1"}},{"base_weights":[3.2592118E-1,3.0731106E-1,3.799449E-1,5.0473374E-1,3.0139625E-1,1.5825218E-2,3.9831388E-1,5.926181E-1,2.594902E-1,2.8629918E-2,3.075347E-1,3.0551374E-1,4.1006002E-1,8.476388E-3,3.0898718E-2,3.3237755E-1,-2.6236656E-3,-2.4183457E-1,2.0575847E-1,2.9031754E-1,3.663105E-1,3.3919042E-1,9.485229E-3,2.2654658E-2,3.723896E-1,2.0329451E-2,7.3686796E-3,-5.5056144E-2,-1.6072987E-2,1.0830945E-2,2.971874E-3,2.4421373E-1,3.0819586E-1,4.5866242E-1,3.423643E-1,1.8117877E-2,6.286807E-3,1.9374749E-2,1.2395197E-2,-7.305002E-4,-3.3987106E-3,1.1306436E-2,2.0965178E-2,1.1564332E-2,1.593533E-2,2.7122241E-3,2.4729768E-2,1.2323245E-2,1.9173296E-2],"categories":[],"categories_nodes":[],"categories_segments":[],"categories_sizes":[],"default_left":[0,0,0,0,0,0,0,0,0,0,0,0,0,0,0,0,0,0,0,0,0,0,0,0,0,0,0,0,0,0,0,0,0,0,0,0,0,0,0,0,0,0,0,0,0,0,0,0,0],"id":51,"left_children":[1,3,5,7,9,-1,11,13,15,17,19,21,23,-1,-1,25,-1,27,29,31,33,35,-1,-1,37,-1,-1,39,-1,-1,-1,41,43,45,47,-1,-1,-1,-1,-1,-1,-1,-1,-1,-1,-1,-1,-1,-1],"loss_changes":[6.885605E-1,5.496788E-1,1.0816574E-1,1.9107056E-1,9.7236633E-1,0E0,4.040718E-2,1.3243914E-2,1.5387014E-1,7.2045726E-1,4.7350693E-1,1.7555475E-2,4.5253754E-2,0E0,0E0,8.726537E-3,0E0,7.153523E-2,1.4266968E-3,2.9400253E-1,1.2161636E-1,2.8615355E-2,0E0,0E0,4.6848297E-2,0E0,0E0,5.743541E-4,0E0,0E0,0E0,3.1682825E-1,1.8415833E-1,3.07405E-1,3.154173E-1,0E0,0E0,0E0,0E0,0E0,0E0,0E0,0E0,0E0,0E0,0E0,0E0,0E0,0E0],"parents":[2147483647,0,0,1,1,2,2,3,3,4,4,6,6,7,7,8,8,9,9,10,10,11,11,12,12,15,15,17,17,18,18,19,19,20,20,21,21,24,24,27,27,31,31,32,32,33,33,34,34],"right_children":[2,4,6,8,10,-1,12,14,16,18,20,22,24,-1,-1,26,-1,28,30,32,34,36,-1,-1,38,-1,-1,40,-1,-1,-1,42,44,46,48,-1,-1,-1,-1,-1,-1,-1,-1,-1,-1,-1,-1,-1,-1],"split_conditions":[6E1,6.775728E-2,4.0244446E1,2.6010246E4,1.1658737E-1,1.5825218E-2,2.3696432E-1,2.16274E4,5.570375E-2,3E1,5.132787E1,1.8387932E-1,2.5788127E4,8.476388E-3,3.0898718E-2,1E0,-2.6236656E-3,3.5909092E1,5.3846153E1,3E1,2.2890379E4,6.205128E1,9.485229E-3,2.2654658E-2,1.628328E0,2.0329451E-2,7.3686796E-3,3.4954544E1,-1.6072987E-2,1.0830945E-2,2.971874E-3,2.793715E4,3.581132E1,1.6062157E-1,2.4230045E4,1.8117877E-2,6.286807E-3,1.9374749E-2,1.2395197E-2,-7.305002E-4,-3.3987106E-3,1.1306436E-2,2.0965178E-2,1.1564332E-2,1.593533E-2,2.7122241E-3,2.4729768E-2,1.2323245E-2,1.9173296E-2],"split_indices":[3,1,0,4,1,0,1,4,1,3,0,1,4,0,0,2,0,0,0,3,4,0,0,0,1,0,0,0,0,0,0,4,0,1,4,0,0,0,0,0,0,0,0,0,0,0,0,0,0],"split_type":[0,0,0,0,0,0,0,0,0,0,0,0,0,0,0,0,0,0,0,0,0,0,0,0,0,0,0,0,0,0,0,0,0,0,0,0,0,0,0,0,0,0,0,0,0,0,0,0,0],"sum_hessian":[8E2,6E2,2E2,1.5E1,5.85E2,4.9E1,1.51E2,1E1,5E0,1.3E1,5.72E2,2E1,1.31E2,1E0,9E0,4E0,1E0,5E0,8E0,4.47E2,1.25E2,1.4E1,6E0,5.6E1,7.5E1,2E0,2E0,2E0,3E0,7E0,1E0,1.29E2,3.18E2,2.2E1,1.03E2,1.2E1,2E0,6.5E1,1E1,1E0,1E0,1.19E2,1E1,4.1E1,2.77E2,2E0,2E1,3.3E1,7E1],"tree_param":{"num_deleted":"0","num_feature":"5","num_nodes":"49","size_leaf_vector":"1"}},{"base_weights":[3.0997574E-1,2.7740213E-1,3.3799854E-1,2.4246572E-1,3.099716E-1,3.2827836E-1,4.6443975E-1,2.2563492E-1,3.373616E-1,3.492645E-1,2.9151297E-1,2.5291792E-1,3.4409803E-1,6.077245E-3,2.4307074E-2,3.0167399E-2,2.1950328E-1,4.1350216E-1,1.464277E-2,3.8194746E-1,2.5904784E-1,1.1451918E-2,3.1515822E-1,3.30627E-1,1.6386612E-1,2.3573335E-2,3.3291072E-1,8.0466785E-2,2.3023282E-1,1.7688158E-1,2.8811375E-2,6.847455E-2,-6.362904E-3,1.3393826E-2,2.0361975E-2,4.025095E-1,1.0797914E-2,4.9815524E-1,2.8308538E-1,2.3739015E-1,3.948002E-1,-1.3376407E-1,2.2785096E-1,3.0444783E-1,3.7580055E-1,1.25190215E-2,1.340577E-3,2.027833E-2,1.0295388E-2,1.3982438E-2,3.0881E-3,4.322647E-3,-8.597459E-5,4.98916E-3,2.5199054E-2,2.7250672E-2,8.014507E-3,1.2265761E-2,1.6447728E-2,-1.730631E-3,2.068147E-2,2.0388696E-2,3.3831398E-3,6.121468E-4,-1.2316503E-2,7.5617316E-3,1.471925E-2,1.610314E-2,9.6284813E-4,1.6377745E-2,2.4953853E-2],"categories":[],"categories_nodes":[],"categories_segments":[],"categories_sizes":[],"default_left":[0,0,0,0,0,0,0,0,0,0,0,0,0,0,0,0,0,0,0,0,0,0,0,0,0,0,0,0,0,0,0,0,0,0,0,0,0,0,0,0,0,0,0,0,0,0,0,0,0,0,0,0,0,0,0,0,0,0,0,0,0,0,0,0,0,0,0,0,0,0,0],"id":52,"left_children":[1,3,5,7,9,11,13,15,17,19,21,23,25,-1,-1,-1,27,29,31,33,35,-1,37,39,41,-1,43,45,47,49,-1,51,-1,-1,-1,53,-1,55,57,59,61,63,65,67,69,-1,-1,-1,-1,-1,-1,-1,-1,-1,-1,-1,-1,-1,-1,-1,-1,-1,-1,-1,-1,-1,-1,-1,-1,-1,-1],"loss_changes":[6.3739777E-1,3.526764E-1,3.7110138E-1,2.2095394E-1,3.671646E-2,3.88649E-1,1.4927149E-1,2.4043846E-1,6.3281703E-1,6.617546E-2,1.2872028E-1,4.5099068E-1,3.0899048E-1,0E0,0E0,0E0,2.2016191E-1,7.0666313E-1,5.454659E-2,3.4284592E-3,2.4345279E-2,0E0,4.2242622E-1,1.336441E-1,7.1605575E-1,0E0,2.5670242E-1,1.1180476E-1,5.477109E-1,1.0103345E-1,0E0,6.458534E-3,0E0,0E0,0E0,4.1865498E-2,0E0,1.1845231E-1,6.483078E-2,8.77193E-1,6.1537027E-2,1.1806376E-1,1.0840666E-1,9.3823814E-1,5.323887E-1,0E0,0E0,0E0,0E0,0E0,0E0,0E0,0E0,0E0,0E0,0E0,0E0,0E0,0E0,0E0,0E0,0E0,0E0,0E0,0E0,0E0,0E0,0E0,0E0,0E0,0E0],"parents":[2147483647,0,0,1,1,2,2,3,3,4,4,5,5,6,6,7,7,8,8,9,9,10,10,11,11,12,12,16,16,17,17,18,18,19,19,20,20,22,22,23,23,24,24,26,26,27,27,28,28,29,29,31,31,35,35,37,37,38,38,39,39,40,40,41,41,42,42,43,43,44,44],"right_children":[2,4,6,8,10,12,14,16,18,20,22,24,26,-1,-1,-1,28,30,32,34,36,-1,38,40,42,-1,44,46,48,50,-1,52,-1,-1,-1,54,-1,56,58,60,62,64,66,68,70,-1,-1,-1,-1,-1,-1,-1,-1,-1,-1,-1,-1,-1,-1,-1,-1,-1,-1,-1,-1,-1,-1,-1,-1,-1,-1],"split_conditions":[4.4632652E1,4.5E1,6.205128E1,2.793715E4,5.863701E-1,3.568554E-1,5.224119E-2,5.570375E-2,1.6142943E0,2.6597914E4,9.5388216E-1,2.5183377E4,4.9102667E-1,6.077245E-3,2.4307074E-2,3.0167399E-2,1.7877501E-1,6.9707036E-1,1.7528538E0,3.4954544E1,3.6333332E1,1.1451918E-2,1.065222E0,2.2890379E4,3E1,2.3573335E-2,1.4155184E0,5.8055144E-2,4.258153E-1,3.551132E-1,2.8811375E-2,1.7424928E0,-6.362904E-3,1.3393826E-2,2.0361975E-2,5.570375E-2,1.0797914E-2,1E0,6E1,1.6062157E-1,2.797671E-1,2.6376188E4,6E1,1.350063E0,1E0,1.25190215E-2,1.340577E-3,2.027833E-2,1.0295388E-2,1.3982438E-2,3.0881E-3,4.322647E-3,-8.597459E-5,4.98916E-3,2.5199054E-2,2.7250672E-2,8.014507E-3,1.2265761E-2,1.6447728E-2,-1.730631E-3,2.068147E-2,2.0388696E-2,3.3831398E-3,6.121468E-4,-1.2316503E-2,7.5617316E-3,1.471925E-2,1.610314E-2,9.6284813E-4,1.6377745E-2,2.4953853E-2],"split_indices":[0,3,0,4,1,1,1,1,1,4,1,4,1,0,0,0,1,1,1,0,0,0,1,4,3,0,1,1,1,1,0,1,0,0,0,1,0,2,3,1,1,4,3,1,2,0,0,0,0,0,0,0,0,0,0,0,0,0,0,0,0,0,0,0,0,0,0,0,0,0,0],"split_type":[0,0,0,0,0,0,0,0,0,0,0,0,0,0,0,0,0,0,0,0,0,0,0,0,0,0,0,0,0,0,0,0,0,0,0,0,0,0,0,0,0,0,0,0,0,0,0,0,0,0,0,0,0,0,0,0,0,0,0,0,0,0,0,0,0,0,0,0,0,0,0],"sum_hessian":[8E2,3.75E2,4.25E2,1.85E2,1.9E2,3.98E2,2.7E1,1.6E2,2.5E1,5.5E1,1.35E2,7.2E1,3.26E2,2E0,2.5E1,1E0,1.59E2,2E1,5E0,3.8E1,1.7E1,4E1,9.5E1,3.7E1,3.5E1,2.3E1,3.03E2,1.2E1,1.47E2,9E0,1.1E1,4E0,1E0,9E0,2.9E1,2E0,1.5E1,1.2E1,8.3E1,1.7E1,2E1,6E0,2.9E1,1.87E2,1.16E2,2E0,1E1,1.6E1,1.31E2,4E0,5E0,3E0,1E0,1E0,1E0,1E1,2E0,4.9E1,3.4E1,7E0,1E1,1.9E1,1E0,3E0,3E0,1.5E1,1.4E1,1.76E2,1.1E1,8.6E1,3E1],"tree_param":{"num_deleted":"0","num_feature":"5","num_nodes":"71","size_leaf_vector":"1"}},{"base_weights":[2.9501906E-1,2.647766E-1,3.2321423E-1,4.6808404E-1,2.58777E-1,3.0356854E-1,3.671027E-1,2.664268E-2,-2.8710547E-3,3.9633475E-2,2.701069E-1,2.804172E-1,3.249333E-1,3.8595223E-1,3.1135237E-1,-5.2256033E-2,2.1775056E-1,2.4217746E-1,3.1568962E-1,3.184016E-1,2.0562994E-1,1.2429351E-2,3.529101E-1,3.549805E-1,2.6747331E-2,2.0713215E-1,3.6125374E-1,-1.9992682E-1,1.2397573E-1,2.6170423E-2,2.8914854E-1,1.8137641E-1,2.6305017E-1,3.6581886E-1,2.7317902E-1,4.203882E-1,1.5142018E-2,9.335715E-2,2.1304107E-1,3.8540047E-1,2.7231228E-1,3.805391E-1,2.4539597E-1,2.2847347E-1,2.6361383E-3,1.2999514E-1,3.7708813E-1,3.2199651E-3,-1.4938436E-2,4.1035755E-4,1.0437518E-2,-7.45753E-4,2.7085347E-3,2.0332096E-2,7.905736E-3,1.3756215E-2,2.8856935E-3,1.7289259E-2,1.0776531E-2,1.5485056E-2,2.4312252E-2,1.9682446E-3,1.6938513E-2,7.2380896E-3,2.5891677E-2,6.2999367E-3,-9.3022827E-4,1.1388159E-2,7.140774E-3,2.1856366E-2,1.6302673E-2,9.91952E-3,1.7389627E-2,9.793793E-3,2.0081539E-2,1.5750332E-2,3.2637639E-3,7.5990455E-3,1.717317E-2,1.0197623E-2,-4.479875E-4,2.0559866E-2,9.284962E-3],"categories":[],"categories_nodes":[],"categories_segments":[],"categories_sizes":[],"default_left":[0,0,0,0,0,0,0,0,0,0,0,0,0,0,0,0,0,0,0,0,0,0,0,0,0,0,0,0,0,0,0,0,0,0,0,0,0,0,0,0,0,0,0,0,0,0,0,0,0,0,0,0,0,0,0,0,0,0,0,0,0,0,0,0,0,0,0,0,0,0,0,0,0,0,0,0,0,0,0,0,0,0,0],"id":53,"left_children":[1,3,5,7,9,11,13,-1,-1,15,17,19,21,23,25,27,29,31,33,35,37,-1,39,41,-1,43,45,47,49,51,53,55,57,59,61,63,-1,65,67,69,71,73,75,77,-1,79,81,-1,-1,-1,-1,-1,-1,-1,-1,-1,-1,-1,-1,-1,-1,-1,-1,-1,-1,-1,-1,-1,-1,-1,-1,-1,-1,-1,-1,-1,-1,-1,-1,-1,-1,-1,-1],"loss_changes":[5.9742737E-1,3.5701942E-1,2.4206924E-1,3.7096453E-1,9.4023895E-1,5.1828384E-2,8.0394745E-3,0E0,0E0,3.387206E-1,3.8695335E-1,3.4927654E-1,2.1984386E-1,2.1157455E-1,1.123991E-1,3.8912603E-1,8.818191E-2,2.4417782E-1,1.8775463E-1,2.345848E-2,2.337861E-2,0E0,1.6477203E-1,1.1667919E-1,0E0,3.4088433E-2,3.520274E-2,2.2825253E-1,6.6986434E-2,4.259173E-3,1.2681991E-2,7.028935E-1,5.89901E-1,2.4813461E-1,1.1675487E0,1.9362259E-1,0E0,2.061719E-2,1.7097712E-2,7.543087E-2,1.1512947E-1,1.5112782E-1,1.9258928E-1,5.3350627E-2,0E0,3.2657545E-2,6.0731173E-2,0E0,0E0,0E0,0E0,0E0,0E0,0E0,0E0,0E0,0E0,0E0,0E0,0E0,0E0,0E0,0E0,0E0,0E0,0E0,0E0,0E0,0E0,0E0,0E0,0E0,0E0,0E0,0E0,0E0,0E0,0E0,0E0,0E0,0E0,0E0,0E0],"parents":[2147483647,0,0,1,1,2,2,3,3,4,4,5,5,6,6,9,9,10,10,11,11,12,12,13,13,14,14,15,15,16,16,17,17,18,18,19,19,20,20,22,22,23,23,25,25,26,26,27,27,28,28,29,29,30,30,31,31,32,32,33,33,34,34,35,35,37,37,38,38,39,39,40,40,41,41,42,42,43,43,45,45,46,46],"right_children":[2,4,6,8,10,12,14,-1,-1,16,18,20,22,24,26,28,30,32,34,36,38,-1,40,42,-1,44,46,48,50,52,54,56,58,60,62,64,-1,66,68,70,72,74,76,78,-1,80,82,-1,-1,-1,-1,-1,-1,-1,-1,-1,-1,-1,-1,-1,-1,-1,-1,-1,-1,-1,-1,-1,-1,-1,-1,-1,-1,-1,-1,-1,-1,-1,-1,-1,-1,-1,-1],"split_conditions":[4.5E1,6.775728E-2,5.0070175E1,2.6010246E4,1.6062157E-1,9.5388216E-1,1.4355763E0,2.664268E-2,-2.8710547E-3,1E0,4.693617E1,6.3595665E-1,2.5027965E4,1.2289227E0,5.2048782E1,3E1,1.1658737E-1,7.689916E-1,8.934182E-1,2.16274E4,6.566184E-1,1.2429351E-2,1E0,9.831664E-1,2.6747331E-2,1.9091995E0,1.5608406E0,3.5909092E1,4.675E1,3.4954544E1,1.1917601E-1,4.6289638E-1,1.2055869E0,6.833675E-1,1.1932144E0,2.8939328E-1,1.5142018E-2,4.225E1,